svm_type nu_svc
kernel_type rbf
gamma 0.000380084
nr_class 2
total_sv 353
rho 1.28732
label 0 1
nr_sv 234 119
SV
148.027659050116 466:1 1663:1 2510:1 
401.6266702152503 817:1 
92.30082564717584 88:1 214:1 426:1 486:1 981:1 1548:1 1687:1 1887:1 2485:1 
49.20133703437423 1017:1 1108:1 1451:1 1896:1 2050:1 2283:1 2391:1 2535:1 
247.941330268262 15:1 251:1 832:1 931:1 1079:1 1205:1 1299:1 1453:1 1580:1 1816:1 2230:1 2270:1 2309:1 
933.990204629487 854:1 888:1 1564:1 1678:1 1727:1 
271.4796836860995 144:1 
250.3514397878058 593:1 801:1 1307:1 2042:1 2433:1 
182.2306478854929 635:1 854:1 1792:1 1973:1 2263:1 2276:1 2348:1 
175.4194891934745 310:1 1005:1 1144:1 1710:1 2364:1 
133.3326242935163 426:1 854:1 1293:1 1956:1 2348:1 2364:1 2627:1 
270.2370444020511 586:1 1057:1 
374.3960103786392 2577:1 
152.6118661623044 8:1 335:1 569:1 763:1 882:1 965:1 1006:1 1422:1 1686:1 1693:1 1842:1 2005:1 2126:1 2265:1 2395:1 2425:1 2554:1 
48.18807384463977 17:1 81:1 592:1 1909:1 2200:1 2421:1 
104.9522845319505 138:1 435:1 615:1 822:1 1282:1 1489:1 1546:1 2120:1 2557:1 
115.3792811230128 147:1 1234:1 1340:1 1879:1 2440:1 
186.4794248120955 98:1 1506:1 1976:1 
59.58509890365821 521:1 1409:1 2111:1 2288:1 2577:1 
15.793254907232 63:1 458:1 999:1 1123:1 1489:1 2124:1 2433:1 2602:1 
343.2945821197355 2484:1 
154.282369468358 635:1 832:1 1279:1 1282:1 1470:1 1602:1 1865:1 1910:1 1938:1 1949:1 2026:1 2173:1 2276:1 2535:1 
59.7358427195284 185:1 214:1 715:1 719:1 1999:1 2173:1 2276:1 
227.6342967879332 412:1 976:1 1886:1 
407.6141949020114 2572:1 
1082.675739389023 472:1 910:1 2023:1 
86.10904635259243 103:1 358:1 931:1 992:1 1887:1 1974:1 2124:1 
101.9634576890926 232:1 626:1 1257:1 1280:1 1426:1 1765:1 1863:1 
173.4666748512075 187:1 814:1 1643:1 1890:1 
272.0477845406933 1883:1 
22.70261655185458 356:1 452:1 493:1 
395.8178336334942 941:1 
89.49687948474069 43:1 57:1 124:1 240:1 244:1 353:1 880:1 1226:1 1752:1 1835:1 1908:1 2326:1 2470:1 
179.2650906399482 111:1 149:1 1495:1 1654:1 2135:1 2173:1 
48.87200400090251 103:1 773:1 851:1 931:1 935:1 1071:1 1249:1 1548:1 1583:1 1725:1 2144:1 2517:1 
92.25226877245115 13:1 426:1 635:1 931:1 934:1 1825:1 2059:1 2225:1 
77.62229958289902 270:1 326:1 588:1 600:1 894:1 1110:1 1497:1 1548:1 1760:1 2074:1 2236:1 2237:1 2292:1 2361:1 2433:1 2517:1 2537:1 
171.022579201723 404:1 683:1 
833.1462328164913 507:1 620:1 832:1 954:1 1969:1 2173:1 2602:1 
128.4610235641987 63:1 192:1 293:1 386:1 530:1 597:1 616:1 635:1 888:1 894:1 959:1 1066:1 1119:1 1282:1 1756:1 1787:1 2224:1 2424:1 
171.8045495006979 179:1 373:1 620:1 635:1 707:1 893:1 894:1 959:1 1770:1 1973:1 2109:1 2139:1 2173:1 2307:1 2433:1 2569:1 
163.1040041257137 13:1 474:1 521:1 931:1 950:1 1141:1 1535:1 1994:1 2173:1 2277:1 2497:1 2539:1 
90.17234951757497 227:1 326:1 458:1 593:1 612:1 620:1 778:1 931:1 1131:1 1156:1 1209:1 1237:1 1290:1 1548:1 1583:1 1643:1 1662:1 1725:1 1883:1 2080:1 2163:1 2276:1 2292:1 2433:1 2465:1 2497:1 2535:1 2569:1 
259.9712275740268 320:1 444:1 1227:1 1473:1 1699:1 1755:1 
222.4981513926454 92:1 719:1 1533:1 2149:1 
174.384191108769 719:1 948:1 1097:1 1533:1 2068:1 2149:1 2196:1 2607:1 
374.3039596747415 131:1 196:1 223:1 496:1 593:1 987:1 1725:1 1908:1 1946:1 2319:1 2326:1 2424:1 2535:1 
160.7222559279903 974:1 1904:1 2364:1 2366:1 
87.24618127973429 264:1 767:1 822:1 888:1 1039:1 1344:1 1376:1 1391:1 1421:1 1451:1 2164:1 2165:1 2582:1 
930.0638732267181 463:1 507:1 620:1 1969:1 2047:1 
205.0372232545805 1275:1 1276:1 1284:1 1382:1 1573:1 1969:1 2026:1 2060:1 2251:1 2510:1 
175.0933535892334 155:1 439:1 888:1 1459:1 1972:1 2144:1 
79.2804224183829 507:1 1493:1 1750:1 2071:1 
114.1398420104449 87:1 186:1 532:1 561:1 850:1 851:1 1357:1 1445:1 1484:1 1573:1 1884:1 2196:1 2227:1 2430:1 2571:1 2599:1 2603:1 2607:1 
122.4881788394434 61:1 117:1 295:1 514:1 590:1 659:1 719:1 961:1 1505:1 1576:1 2094:1 2345:1 2622:1 
142.9306457853862 612:1 2003:1 2159:1 2276:1 2433:1 2602:1 
66.09503941122848 23:1 179:1 326:1 548:1 1342:1 1495:1 1580:1 1684:1 1779:1 1861:1 1898:1 1908:1 2380:1 
138.9189495678758 231:1 426:1 588:1 707:1 742:1 801:1 931:1 972:1 1217:1 1602:1 1754:1 1825:1 1925:1 2026:1 2060:1 2164:1 2430:1 2431:1 2433:1 2610:1 
357.3514252597793 1395:1 1403:1 2026:1 2378:1 
328.7808562995871 284:1 681:1 1393:1 1808:1 2196:1 2524:1 
92.28234835282242 32:1 855:1 
254.7297720865339 42:1 195:1 593:1 885:1 
423.8733352775737 146:1 563:1 818:1 1318:1 1969:1 2023:1 2148:1 
46.69661138300822 146:1 214:1 237:1 422:1 636:1 682:1 954:1 1284:1 1372:1 1808:1 2283:1 2485:1 2586:1 
364.1163422926102 1224:1 
268.3868601672986 931:1 1549:1 1799:1 2079:1 
54.8895580989462 23:1 220:1 249:1 254:1 258:1 287:1 288:1 329:1 333:1 366:1 417:1 426:1 427:1 429:1 503:1 518:1 550:1 588:1 593:1 608:1 645:1 657:1 682:1 759:1 802:1 822:1 832:1 888:1 894:1 910:1 921:1 931:1 950:1 954:1 959:1 962:1 991:1 1021:1 1043:1 1113:1 1146:1 1147:1 1187:1 1217:1 1232:1 1244:1 1275:1 1311:1 1341:1 1360:1 1374:1 1580:1 1589:1 1653:1 1725:1 1740:1 1763:1 1804:1 1852:1 1853:1 1916:1 1973:1 1995:1 2015:1 2026:1 2072:1 2173:1 2196:1 2209:1 2216:1 2224:1 2230:1 2245:1 2248:1 2359:1 2433:1 2484:1 2485:1 2492:1 2582:1 
100.6297417605668 231:1 534:1 851:1 981:1 1142:1 1249:1 1406:1 1411:1 1826:1 1828:1 1852:1 1944:1 2285:1 2451:1 2485:1 
57.52077261278248 2:1 353:1 426:1 1095:1 1604:1 1725:1 2173:1 2237:1 2535:1 2537:1 2602:1 
217.3031502504693 223:1 502:1 507:1 620:1 622:1 635:1 766:1 851:1 891:1 894:1 910:1 931:1 954:1 1060:1 1110:1 1227:1 1236:1 1409:1 1460:1 1877:1 2167:1 2173:1 2184:1 2188:1 2292:1 2349:1 2424:1 2447:1 2535:1 2591:1 
335.044415981089 293:1 1275:1 1445:1 1575:1 2003:1 2485:1 
52.43483816325256 379:1 380:1 1042:1 1053:1 1066:1 1580:1 1616:1 2059:1 2196:1 2230:1 2424:1 2433:1 2450:1 
170.9700342945258 522:1 560:1 1973:1 2173:1 
279.2714654554216 530:1 1081:1 1662:1 1723:1 1780:1 2182:1 2216:1 2537:1 2546:1 2602:1 
241.638234034299 220:1 249:1 411:1 593:1 715:1 888:1 892:1 918:1 931:1 967:1 1349:1 1580:1 1717:1 2254:1 
24.43403798732558 2:1 156:1 180:1 223:1 353:1 363:1 379:1 426:1 437:1 458:1 480:1 496:1 518:1 616:1 666:1 740:1 832:1 894:1 902:1 950:1 1001:1 1017:1 1037:1 1053:1 1079:1 1094:1 1146:1 1187:1 1222:1 1244:1 1280:1 1284:1 1290:1 1347:1 1409:1 1415:1 1489:1 1584:1 1602:1 1662:1 1742:1 1759:1 1815:1 1861:1 1866:1 1916:1 1932:1 1969:1 2026:1 2082:1 2173:1 2186:1 2292:1 2350:1 2371:1 2390:1 2485:1 2537:1 2603:1 2607:1 2610:1 2627:1 
128.451203899078 223:1 715:1 973:1 2173:1 2186:1 2371:1 
134.1721707498747 223:1 284:1 420:1 494:1 812:1 851:1 1306:1 1574:1 1643:1 2031:1 2106:1 2514:1 2578:1 
214.2082352608838 135:1 476:1 1602:1 
69.24855496567706 2:1 221:1 480:1 854:1 918:1 931:1 954:1 1217:1 1311:1 1445:1 1451:1 1602:1 1718:1 1725:1 1969:1 2182:1 2260:1 2348:1 2364:1 2616:1 
349.0160463483194 431:1 521:1 2008:1 2182:1 
163.3582954422835 150:1 239:1 427:1 503:1 595:1 826:1 1037:1 1285:1 2575:1 2620:1 
177.7671174439489 1186:1 2502:1 2537:1 2627:1 
86.81402010837424 758:1 1363:1 1476:1 2144:1 2537:1 
992.9866115201604 426:1 898:1 954:1 2154:1 2590:1 
401.9785874222468 455:1 992:1 2144:1 
81.03891083681994 63:1 80:1 402:1 458:1 492:1 521:1 613:1 628:1 894:1 1029:1 1124:1 1452:1 1535:1 1580:1 1583:1 1628:1 1642:1 1726:1 1753:1 1908:1 2121:1 2173:1 2420:1 2433:1 2497:1 2535:1 2548:1 
238.2149390576313 223:1 590:1 818:1 1342:1 1449:1 1487:1 1732:1 2359:1 
475.5814907095595 497:1 818:1 922:1 1205:1 1449:1 2419:1 
120.6044882114041 2:1 138:1 214:1 223:1 244:1 359:1 385:1 446:1 638:1 800:1 818:1 831:1 1173:1 1275:1 1284:1 1449:1 1548:1 1680:1 1752:1 1835:1 2121:1 2127:1 2281:1 2300:1 2302:1 2367:1 2419:1 2476:1 2563:1 
307.5171139510367 156:1 214:1 839:1 1021:1 1147:1 1468:1 2026:1 2173:1 2276:1 2430:1 2586:1 
101.7280210103854 172:1 1761:1 
69.67534589531164 93:1 621:1 1249:1 1706:1 1931:1 1973:1 2173:1 
397.3434950093582 315:1 363:1 521:1 888:1 1110:1 1289:1 1387:1 1580:1 2492:1 
314.6953810156972 311:1 521:1 593:1 845:1 1725:1 1898:1 1956:1 2006:1 2051:1 2173:1 
668.1965843875524 1170:1 1760:1 1973:1 2173:1 2276:1 2569:1 
1052.204504387338 458:1 822:1 980:1 2587:1 
726.0200351351067 1363:1 2537:1 
84.63070362198785 49:1 107:1 176:1 211:1 518:1 521:1 593:1 608:1 635:1 833:1 1177:1 1249:1 1363:1 1548:1 1602:1 1662:1 1940:1 2023:1 2079:1 2148:1 2173:1 2537:1 2607:1 2612:1 2624:1 
177.5766504401831 791:1 1515:1 
44.47746464806765 15:1 111:1 250:1 458:1 635:1 709:1 1110:1 1583:1 1662:1 1710:1 2026:1 2433:1 2537:1 
187.5616646756118 23:1 27:1 1362:1 1392:1 1638:1 2176:1 
349.3915653261383 129:1 168:1 1001:1 1110:1 1149:1 1497:1 2216:1 2537:1 
162.52189879886 43:1 65:1 93:1 259:1 700:1 831:1 1164:1 1258:1 1275:1 1535:1 1911:1 2121:1 2145:1 
106.5902384454149 165:1 691:1 1360:1 1417:1 2026:1 2492:1 
163.1275002699788 49:1 114:1 707:1 731:1 935:1 1016:1 1580:1 1616:1 1653:1 1922:1 2196:1 2206:1 2374:1 2533:1 
334.3705220437502 992:1 2144:1 2282:1 
441.7708241666922 1382:1 1923:1 
229.4891544044719 119:1 447:1 835:1 1252:1 1266:1 1553:1 2142:1 
220.4751952885726 244:1 2139:1 
220.0738117243604 682:1 1602:1 2137:1 2339:1 
256.4128800669167 15:1 237:1 588:1 1110:1 1580:1 1724:1 2537:1 
74.54464897498326 562:1 568:1 1221:1 2332:1 
103.7079486917646 2:1 68:1 305:1 503:1 931:1 1335:1 1691:1 1926:1 2105:1 2556:1 
411.898479668205 179:1 1275:1 1602:1 1856:1 1973:1 2433:1 2448:1 
222.6536615969806 223:1 547:1 2086:1 2462:1 2473:1 
125.0148226763649 100:1 1402:1 1523:1 1817:1 1849:1 
120.0473326781917 207:1 628:1 715:1 976:1 1191:1 2201:1 
268.7345193798722 503:1 931:1 1489:1 2124:1 2173:1 2302:1 2369:1 2373:1 2433:1 2598:1 
290.1145033449615 58:1 578:1 2072:1 
251.5300479658233 1539:1 2386:1 
139.0242082709127 8:1 188:1 212:1 781:1 1500:1 1688:1 2000:1 2172:1 2355:1 
1071.124848712914 1973:1 2216:1 2537:1 
264.7781459327072 23:1 190:1 192:1 550:1 863:1 1034:1 1247:1 2148:1 
50.77580950216316 146:1 160:1 223:1 377:1 642:1 652:1 819:1 964:1 993:1 1000:1 1143:1 1348:1 1599:1 1891:1 1956:1 1977:1 2160:1 2173:1 2359:1 2407:1 2595:1 
104.5114080183562 465:1 501:1 612:1 1185:1 1261:1 1522:1 2096:1 2173:1 2293:1 
261.2649775891338 803:1 1662:1 1715:1 1949:1 2537:1 
10.93683856136663 258:1 357:1 509:1 556:1 767:1 935:1 1263:1 1803:1 
868.164037227917 23:1 648:1 1263:1 1352:1 1445:1 1583:1 2068:1 
181.5209488274643 85:1 1132:1 
45.65014249200281 238:1 505:1 820:1 926:1 1106:1 1623:1 1648:1 1711:1 1907:1 2026:1 2053:1 2067:1 2068:1 2138:1 2297:1 2577:1 
98.24348094724377 52:1 385:1 505:1 599:1 614:1 1343:1 1602:1 2121:1 2383:1 
99.65820661742792 622:1 713:1 931:1 1017:1 1220:1 1297:1 1459:1 1635:1 1727:1 2295:1 
37.39024641919864 180:1 521:1 602:1 822:1 1282:1 1363:1 1459:1 1489:1 1916:1 2493:1 2537:1 
144.8908151135463 155:1 1355:1 1563:1 1865:1 2050:1 
522.21968446933 68:1 426:1 496:1 759:1 1191:1 
255.5698265264876 24:1 203:1 458:1 503:1 656:1 715:1 901:1 1284:1 1351:1 1787:1 2196:1 
327.3152451521104 2:1 87:1 490:1 726:1 736:1 832:1 864:1 1202:1 1710:1 1808:1 2173:1 2425:1 
633.2476573260574 63:1 1441:1 1459:1 2493:1 
384.5668034171354 21:1 146:1 496:1 618:1 931:1 1010:1 1079:1 1342:1 1407:1 1638:1 1725:1 1908:1 2173:1 2292:1 2537:1 
293.1424348820454 12:1 503:1 521:1 758:1 890:1 1808:1 1838:1 2061:1 2089:1 2378:1 2492:1 2537:1 2570:1 2624:1 
144.5542691112594 212:1 214:1 220:1 223:1 267:1 277:1 406:1 503:1 576:1 617:1 758:1 761:1 765:1 1026:1 1066:1 1199:1 1306:1 1401:1 1529:1 1602:1 1660:1 1665:1 1846:1 2492:1 
232.378532946027 214:1 223:1 352:1 386:1 413:1 521:1 672:1 888:1 931:1 1064:1 1146:1 1186:1 1583:1 2026:1 2254:1 2276:1 2318:1 2479:1 2485:1 2598:1 2627:1 
95.14712487140251 174:1 1906:1 
179.8132886631727 69:1 521:1 1916:1 
150.2663016342184 309:1 1459:1 1616:1 1780:1 1944:1 
89.58452799463352 323:1 426:1 499:1 583:1 735:1 1163:1 1725:1 2319:1 
57.267138364839 49:1 218:1 237:1 297:1 458:1 521:1 552:1 593:1 658:1 715:1 850:1 888:1 918:1 950:1 951:1 954:1 1018:1 1060:1 1233:1 1244:1 1263:1 1282:1 1355:1 1409:1 1445:1 1573:1 1725:1 1803:1 1808:1 1852:1 1973:1 2015:1 2026:1 2134:1 2196:1 2216:1 2283:1 2316:1 2323:1 2537:1 2607:1 2624:1 
333.2641521287226 111:1 1209:1 1226:1 1237:1 1355:1 1696:1 1866:1 2145:1 2385:1 2485:1 
177.5319928895337 615:1 836:1 948:1 984:1 1219:1 1808:1 2116:1 2118:1 2294:1 2586:1 
606.0818112319655 1340:1 1808:1 2204:1 2433:1 
668.7291883418108 1237:1 2182:1 
83.80362693401527 518:1 690:1 823:1 879:1 1588:1 1941:1 1969:1 2156:1 2454:1 2485:1 
330.7826840046015 231:1 237:1 288:1 309:1 333:1 518:1 759:1 1017:1 1710:1 1808:1 2433:1 2546:1 2607:1 
247.349360711923 258:1 1932:1 2015:1 
239.27824500708 1511:1 1685:1 
242.4855304253395 179:1 458:1 481:1 761:1 822:1 1358:1 1710:1 1973:1 2236:1 2485:1 
113.4666721195013 136:1 446:1 767:1 782:1 1907:1 2492:1 
98.17971596598488 140:1 1260:1 1597:1 2469:1 
275.2997584956535 521:1 709:1 851:1 931:1 1187:1 1393:1 2012:1 2144:1 2492:1 
125.8921950632665 61:1 294:1 521:1 
240.3997719314785 13:1 392:1 573:1 1290:1 2061:1 
36.43745780862555 128:1 226:1 450:1 458:1 507:1 521:1 1008:1 1602:1 1624:1 1792:1 1907:1 1986:1 2331:1 2413:1 
524.1113573055637 326:1 473:1 
78.14008772091402 15:1 61:1 97:1 226:1 374:1 928:1 962:1 1445:1 1451:1 1460:1 1580:1 1662:1 1792:1 1956:1 1979:1 2083:1 2245:1 2485:1 2492:1 2535:1 
61.25813578777242 43:1 93:1 128:1 176:1 184:1 314:1 353:1 361:1 426:1 445:1 751:1 796:1 815:1 838:1 913:1 948:1 1174:1 1226:1 1365:1 1440:1 1575:1 1602:1 1889:1 1911:1 1986:1 1993:1 2028:1 2102:1 2120:1 2122:1 2367:1 2421:1 2476:1 2488:1 2492:1 2559:1 
143.1985068121544 209:1 517:1 582:1 815:1 2085:1 2091:1 2528:1 
67.14033028898865 832:1 1244:1 1831:1 2083:1 2317:1 2433:1 
326.9551943204576 452:1 750:1 
90.70231597814512 759:1 851:1 1004:1 1174:1 1466:1 1477:1 1725:1 1851:1 2060:1 2433:1 2459:1 2629:1 
49.95637468468359 15:1 155:1 223:1 258:1 546:1 583:1 609:1 954:1 1122:1 1583:1 1851:1 1932:1 2173:1 2179:1 2228:1 2450:1 2492:1 2607:1 
329.5232312189177 61:1 521:1 988:1 
340.167125720854 203:1 360:1 1240:1 
212.7284936585117 1701:1 2120:1 
54.10472326896701 78:1 266:1 291:1 633:1 656:1 808:1 860:1 871:1 886:1 1158:1 1190:1 1328:1 1353:1 1408:1 1512:1 1545:1 1712:1 1754:1 1777:1 1879:1 2100:1 2125:1 2231:1 2360:1 
92.15548434683973 63:1 226:1 666:1 709:1 756:1 931:1 1203:1 1275:1 1580:1 1792:1 1868:1 2050:1 2433:1 
60.80722902932333 271:1 550:1 666:1 1133:1 1155:1 1354:1 1504:1 1657:1 1868:1 2030:1 2182:1 2354:1 2392:1 2413:1 2512:1 2530:1 
289.4044421865036 226:1 521:1 1491:1 1792:1 2277:1 
67.20944133246341 127:1 653:1 881:1 978:1 1152:1 1476:1 1658:1 1862:1 2255:1 2483:1 
446.8128722043145 659:1 1175:1 
210.4507134264163 13:1 284:1 1550:1 2020:1 2069:1 2080:1 2492:1 2494:1 
82.77539006852506 1279:1 1745:1 2177:1 2385:1 
38.66894776781415 40:1 87:1 130:1 167:1 212:1 277:1 307:1 378:1 416:1 462:1 521:1 883:1 889:1 933:1 971:1 1208:1 1219:1 1388:1 1401:1 1422:1 1489:1 1514:1 1517:1 1520:1 1602:1 1681:1 1688:1 1773:1 1837:1 1945:1 2116:1 2259:1 2310:1 2327:1 2340:1 2514:1 2596:1 2628:1 
119.4122985087742 1214:1 2601:1 
29.07174628786384 26:1 426:1 521:1 703:1 832:1 868:1 1076:1 1174:1 1275:1 1451:1 1460:1 1602:1 1643:1 1756:1 1781:1 2433:1 2609:1 
117.7486227071612 199:1 1698:1 
40.05170649307701 82:1 381:1 426:1 503:1 637:1 787:1 832:1 863:1 865:1 1060:1 1357:1 1550:1 1600:1 1853:1 1982:1 2015:1 2021:1 2173:1 
148.9153029340438 223:1 557:1 1147:1 1174:1 1209:1 1237:1 1293:1 1451:1 1662:1 1725:1 1851:1 1973:1 2059:1 2144:1 2202:1 2265:1 2276:1 2390:1 2535:1 
198.8764386769413 1675:1 1746:1 
216.228866594996 205:1 1275:1 1451:1 1602:1 1611:1 2433:1 2539:1 
598.7525007878666 103:1 935:1 1011:1 1244:1 
517.802102040491 92:1 261:1 
82.13163921668361 521:1 593:1 1426:1 1550:1 1973:1 1982:1 2041:1 2108:1 2111:1 2433:1 2604:1 
167.8247453027108 1486:1 1549:1 1863:1 2196:1 2609:1 
59.71163700954468 63:1 93:1 359:1 718:1 824:1 903:1 1427:1 1933:1 2274:1 2320:1 2363:1 
253.0701980210509 226:1 637:1 826:1 1007:1 1355:1 1602:1 1792:1 1851:1 2459:1 2556:1 2629:1 
106.80535579259 179:1 950:1 1060:1 1224:1 1284:1 2196:1 2433:1 
143.1470687207778 39:1 226:1 501:1 682:1 687:1 703:1 764:1 1299:1 1725:1 1792:1 1839:1 2364:1 2370:1 2419:1 2588:1 2610:1 
25.40423850003992 56:1 156:1 185:1 325:1 349:1 375:1 553:1 597:1 637:1 647:1 715:1 851:1 888:1 910:1 931:1 954:1 987:1 991:1 999:1 1108:1 1209:1 1217:1 1237:1 1291:1 1451:1 1459:1 1604:1 1691:1 1723:1 1725:1 1911:1 1923:1 1955:1 1973:1 1981:1 2003:1 2026:1 2127:1 2213:1 2219:1 2230:1 2251:1 2276:1 2450:1 2480:1 2516:1 2517:1 
103.3708389536718 2:1 15:1 192:1 309:1 386:1 394:1 481:1 551:1 588:1 633:1 637:1 759:1 797:1 832:1 931:1 962:1 1282:1 1290:1 1502:1 1580:1 1602:1 1616:1 1853:1 2059:1 2141:1 2236:1 2242:1 2289:1 2385:1 2401:1 2492:1 2508:1 2532:1 
149.6525980969018 126:1 299:1 469:1 1916:1 
328.7964983873034 501:1 832:1 1249:1 1272:1 1602:1 1851:1 2433:1 2524:1 2588:1 
85.19836466555219 559:1 635:1 1347:1 1393:1 1461:1 1708:1 2156:1 2433:1 2535:1 
102.7473046092803 226:1 837:1 1030:1 1284:1 1580:1 2083:1 2144:1 2460:1 
280.3299694607763 257:1 521:1 524:1 2121:1 
241.5222317979056 103:1 501:1 931:1 935:1 1159:1 1216:1 1348:1 1459:1 2023:1 2137:1 2173:1 2280:1 2325:1 2588:1 
187.2569187084886 733:1 1528:1 1756:1 1973:1 2276:1 
128.2175718943821 821:1 915:1 1186:1 1648:1 2025:1 
686.8579057555283 193:1 
310.2278832816276 742:1 1067:1 2577:1 
87.71547428821124 156:1 223:1 249:1 333:1 451:1 458:1 480:1 578:1 588:1 604:1 616:1 628:1 635:1 773:1 822:1 832:1 888:1 891:1 959:1 1108:1 1147:1 1165:1 1172:1 1284:1 1393:1 1426:1 1460:1 1489:1 1513:1 1662:1 1723:1 1789:1 2111:1 2114:1 2230:1 2285:1 2533:1 2535:1 2602:1 
185.8125341194841 642:1 725:1 2148:1 2177:1 2218:1 
341.2660153795387 309:1 1469:1 1985:1 2023:1 2248:1 2545:1 
700.7394577004329 1102:1 1249:1 2050:1 2173:1 2230:1 2283:1 2415:1 2492:1 2624:1 
153.6878880386766 121:1 182:1 353:1 426:1 1226:1 1434:1 2104:1 2145:1 
28.77021691596894 102:1 111:1 151:1 223:1 248:1 612:1 759:1 822:1 1072:1 1169:1 1340:1 1408:1 1424:1 1580:1 2050:1 2164:1 2173:1 2195:1 2196:1 
91.77561223957773 426:1 681:1 851:1 939:1 1284:1 1922:1 2450:1 2573:1 
42.77789773744045 7:1 540:1 1066:1 1476:1 2050:1 2178:1 2624:1 
288.9398803000109 1169:1 2624:1 
168.8723314027806 727:1 1295:1 2120:1 2284:1 2469:1 
98.6742372884147 866:1 1186:1 1644:1 2426:1 
129.4941832440795 338:1 528:1 1060:1 1387:1 1423:1 1602:1 1723:1 1783:1 2177:1 2431:1 
65.38668671797785 327:1 442:1 581:1 712:1 790:1 1074:1 1301:1 1908:1 2019:1 2566:1 
98.90772585598135 391:1 706:1 1451:1 1783:1 2124:1 2555:1 2629:1 
422.5260500003164 380:1 1580:1 1756:1 1821:1 2579:1 
218.6143415284103 15:1 709:1 715:1 753:1 1284:1 1580:1 2144:1 2150:1 2585:1 
148.6855347595355 258:1 422:1 888:1 1548:1 1865:1 2026:1 
134.1882859154967 250:1 458:1 898:1 1379:1 1518:1 1580:1 1600:1 1745:1 1877:1 2062:1 2173:1 2299:1 2580:1 
119.1159967603303 797:1 1496:1 
132.6542645141907 111:1 521:1 1348:1 1489:1 1602:1 2173:1 
144.2120718290077 376:1 396:1 507:1 1338:1 
696.4805708793033 1342:1 1548:1 1916:1 2607:1 
1082.675739389023 2607:1 
800.3397479630114 49:1 2607:1 
-173.321403272857 23:1 709:1 1602:1 1828:1 2080:1 2088:1 2164:1 2302:1 2430:1 
-1082.675739389023 521:1 2587:1 2624:1 
-243.3933263147696 521:1 1079:1 1475:1 2607:1 2624:1 
-1082.675739389023 854:1 962:1 1678:1 1973:1 2050:1 2173:1 2276:1 
-1082.675739389023 2415:1 
-1082.675739389023 215:1 
-201.4543420921657 888:1 931:1 1079:1 1573:1 1973:1 2068:1 2230:1 2537:1 2607:1 
-990.4714797700436 773:1 1147:1 1725:1 2023:1 2433:1 
-387.5259317183931 281:1 288:1 555:1 826:1 931:1 1290:1 1380:1 2081:1 2152:1 2173:1 2535:1 
-86.8929703827021 9:1 14:1 74:1 110:1 223:1 231:1 233:1 264:1 288:1 330:1 365:1 426:1 521:1 608:1 622:1 681:1 682:1 698:1 878:1 894:1 931:1 946:1 954:1 1028:1 1046:1 1157:1 1206:1 1217:1 1237:1 1265:1 1279:1 1284:1 1355:1 1368:1 1441:1 1583:1 1602:1 1647:1 1653:1 1662:1 1803:1 1916:1 1923:1 1927:1 1973:1 2026:1 2029:1 2078:1 2111:1 2152:1 2157:1 2173:1 2190:1 2196:1 2216:1 2230:1 2245:1 2292:1 2316:1 2339:1 2370:1 2433:1 2434:1 2535:1 2537:1 2582:1 2603:1 
-206.2612266500245 35:1 93:1 125:1 240:1 582:1 624:1 1275:1 1889:1 1911:1 2026:1 
-34.7881903491438 103:1 231:1 363:1 458:1 788:1 888:1 894:1 935:1 950:1 1410:1 1458:1 1580:1 1795:1 1944:1 2076:1 2216:1 2415:1 2443:1 
-668.434319059612 13:1 103:1 593:1 938:1 954:1 1602:1 1944:1 2080:1 2148:1 2182:1 2494:1 
-378.7357027548699 8:1 335:1 594:1 2357:1 2381:1 2503:1 
-91.04566270409192 114:1 214:1 353:1 424:1 931:1 1079:1 1217:1 1548:1 1573:1 1580:1 1602:1 1653:1 1821:1 2144:1 2176:1 2181:1 2276:1 2370:1 2374:1 2433:1 2537:1 
-526.6764915948236 3:1 1475:1 
-1082.675739389023 620:1 
-51.31415415575075 46:1 230:1 312:1 444:1 502:1 507:1 511:1 620:1 897:1 904:1 920:1 923:1 1136:1 1166:1 1210:1 1227:1 1248:1 1253:1 1295:1 1364:1 1496:1 1658:1 1699:1 1704:1 1709:1 1800:1 1877:1 2184:1 2471:1 2477:1 2536:1 2591:1 
-1082.675739389023 463:1 507:1 620:1 1969:1 
-633.3654896339474 832:1 851:1 888:1 1248:1 1249:1 1371:1 1533:1 1760:1 1973:1 2173:1 2598:1 
-201.4515468910425 507:1 620:1 1248:1 1273:1 1658:1 2139:1 
-243.1909557326041 193:1 223:1 246:1 458:1 463:1 635:1 832:1 858:1 867:1 894:1 931:1 1159:1 1209:1 1352:1 1409:1 1426:1 1498:1 1580:1 1691:1 1800:1 2023:1 2047:1 2060:1 2072:1 2079:1 2196:1 2276:1 2289:1 2338:1 2374:1 2425:1 2535:1 
-741.7342076810528 507:1 766:1 1973:1 2026:1 2033:1 2173:1 2569:1 
-102.1227673319123 198:1 507:1 751:1 766:1 900:1 1364:1 1938:1 2121:1 2563:1 
-54.23839712558836 65:1 111:1 178:1 214:1 223:1 308:1 326:1 518:1 550:1 593:1 822:1 1079:1 1248:1 1284:1 1371:1 1413:1 1533:1 1662:1 1781:1 2059:1 2265:1 2292:1 2306:1 2313:1 2433:1 2533:1 2607:1 2612:1 
-208.0799413354214 93:1 406:1 426:1 590:1 831:1 1067:1 1145:1 1326:1 1535:1 1728:1 1900:1 2090:1 2130:1 
-552.0015268128768 61:1 590:1 659:1 1067:1 1911:1 2406:1 
-637.3151487145318 709:1 740:1 928:1 1010:1 1275:1 1908:1 2173:1 2277:1 2497:1 
-220.7150967013085 111:1 458:1 459:1 661:1 707:1 805:1 832:1 845:1 869:1 910:1 995:1 1710:1 1725:1 1748:1 1817:1 1828:1 2173:1 2433:1 2609:1 
-508.7822053031132 700:1 1110:1 1548:1 1602:1 1869:1 1973:1 2003:1 2173:1 2192:1 2276:1 2433:1 
-53.41595512919314 114:1 223:1 243:1 249:1 269:1 426:1 642:1 650:1 656:1 667:1 681:1 702:1 754:1 931:1 947:1 955:1 1017:1 1342:1 1616:1 1638:1 1662:1 1756:1 1822:1 1852:1 2003:1 2012:1 2026:1 2058:1 2081:1 2196:1 2211:1 2419:1 2447:1 2562:1 
-93.3242004704104 23:1 31:1 203:1 214:1 223:1 224:1 265:1 301:1 412:1 684:1 750:1 822:1 898:1 910:1 1033:1 1122:1 1209:1 1417:1 1495:1 1549:1 1551:1 1583:1 1662:1 1691:1 1747:1 2173:1 2177:1 2180:1 2181:1 2276:1 2295:1 2359:1 2385:1 2433:1 2464:1 2517:1 2537:1 2607:1 2616:1 
-20.4882887704054 30:1 192:1 822:1 1034:1 1070:1 1113:1 1288:1 1483:1 1583:1 1756:1 1855:1 1864:1 1875:1 2081:1 2221:1 2250:1 2374:1 2525:1 
-65.06988863938395 141:1 192:1 272:1 309:1 373:1 394:1 426:1 700:1 1010:1 1279:1 1284:1 1358:1 1363:1 1387:1 1617:1 1725:1 1908:1 2015:1 2081:1 2144:1 2148:1 2173:1 2192:1 2196:1 2276:1 2539:1 2562:1 2624:1 
-305.3529247198632 162:1 270:1 612:1 793:1 1110:1 1573:1 1792:1 2060:1 2173:1 2221:1 2248:1 2374:1 
-300.9910160956106 250:1 832:1 845:1 1244:1 1357:1 1449:1 1602:1 2192:1 2392:1 2433:1 2492:1 
-48.08125715432075 11:1 15:1 23:1 176:1 179:1 214:1 223:1 249:1 255:1 287:1 366:1 458:1 586:1 587:1 588:1 593:1 595:1 630:1 891:1 946:1 1060:1 1079:1 1110:1 1147:1 1159:1 1342:1 1392:1 1511:1 1548:1 1580:1 1583:1 1807:1 1857:1 1921:1 2025:1 2026:1 2068:1 2140:1 2171:1 2173:1 2302:1 2378:1 2433:1 2445:1 2515:1 2517:1 
-158.6111553533712 23:1 111:1 214:1 716:1 769:1 822:1 931:1 935:1 1114:1 1725:1 2060:1 2111:1 2144:1 2192:1 2196:1 2221:1 2270:1 2295:1 2407:1 2533:1 2562:1 
-163.3883579656656 259:1 514:1 582:1 639:1 643:1 785:1 1576:1 1911:1 2121:1 2254:1 2492:1 2553:1 2622:1 
-0.6405361834395866 214:1 271:1 689:1 700:1 734:1 751:1 1414:1 1548:1 1602:1 1715:1 1754:1 1908:1 2009:1 2081:1 2143:1 2192:1 2394:1 2433:1 2545:1 
-219.2214689185326 23:1 148:1 301:1 684:1 910:1 1190:1 1710:1 2615:1 
-521.5365894534505 23:1 206:1 685:1 822:1 893:1 1284:1 1445:1 2485:1 
-146.3087927335401 289:1 426:1 1275:1 1306:1 1539:1 1683:1 2081:1 2093:1 
-227.1741485628987 90:1 214:1 277:1 385:1 518:1 616:1 963:1 968:1 1219:1 1260:1 1705:1 1867:1 1995:1 2199:1 
-605.0055768170696 927:1 1365:1 1808:1 2568:1 
-113.4659476315711 320:1 567:1 1130:1 1272:1 1911:1 2391:1 
-213.9176922554016 231:1 258:1 992:1 1275:1 1363:1 1652:1 1725:1 1727:1 1788:1 1797:1 1808:1 1825:1 1932:1 2015:1 2144:1 2537:1 2547:1 2607:1 
-1082.675739389023 1011:1 1580:1 1851:1 2602:1 
-44.45424275334962 242:1 268:1 334:1 401:1 426:1 546:1 628:1 669:1 681:1 753:1 767:1 822:1 833:1 888:1 894:1 898:1 931:1 959:1 992:1 1187:1 1282:1 1421:1 1580:1 1604:1 1765:1 1798:1 2216:1 2217:1 2237:1 2239:1 2336:1 2535:1 2537:1 2586:1 
-640.7335760551429 155:1 496:1 622:1 1060:1 1355:1 1670:1 1723:1 
-26.49745144824872 168:1 179:1 223:1 249:1 334:1 458:1 546:1 593:1 635:1 716:1 822:1 845:1 851:1 888:1 894:1 910:1 931:1 962:1 975:1 1017:1 1060:1 1084:1 1110:1 1209:1 1284:1 1363:1 1489:1 1574:1 1583:1 1667:1 1916:1 1923:1 1973:1 2023:1 2059:1 2132:1 2173:1 2216:1 2265:1 2416:1 2485:1 2535:1 2537:1 2582:1 
-70.41696986650503 23:1 181:1 685:1 1205:1 2061:1 2081:1 2272:1 
-145.9861245692677 214:1 398:1 474:1 535:1 593:1 770:1 792:1 822:1 888:1 918:1 943:1 1009:1 1049:1 1108:1 1187:1 1193:1 1251:1 1290:1 1311:1 1445:1 1489:1 1510:1 1710:1 1718:1 1767:1 1859:1 1885:1 1896:1 2004:1 2050:1 2069:1 2072:1 2144:1 2173:1 2254:1 2364:1 2370:1 2378:1 2485:1 
-1082.675739389023 417:1 
-165.2907836675281 8:1 212:1 223:1 857:1 906:1 954:1 959:1 1146:1 1275:1 1306:1 1313:1 1395:1 1561:1 1683:1 1793:1 1960:1 2021:1 2049:1 2101:1 2432:1 2454:1 2492:1 
-1071.611188529419 758:1 2023:1 2537:1 
-622.8784721951246 316:1 715:1 2023:1 2537:1 
-792.5777724033323 888:1 1168:1 1727:1 2429:1 
-1082.675739389023 1205:1 1375:1 1393:1 
-741.4577722921947 146:1 818:1 1241:1 1449:1 2419:1 
-437.0043618513192 92:1 320:1 361:1 371:1 426:1 2068:1 2417:1 2577:1 
-322.5007859475425 775:1 845:1 1110:1 1122:1 1583:1 1662:1 2056:1 2364:1 
-739.9635389680326 148:1 297:1 388:1 898:1 2492:1 
-437.2210627412036 92:1 782:1 1252:1 1988:1 
-280.0648296710113 244:1 751:1 780:1 1252:1 2158:1 
-191.9766523938528 15:1 148:1 220:1 223:1 274:1 424:1 557:1 664:1 673:1 818:1 832:1 888:1 919:1 931:1 935:1 1037:1 1131:1 1149:1 1223:1 1237:1 1279:1 1335:1 1342:1 1445:1 1449:1 1489:1 1548:1 1549:1 1580:1 1583:1 1632:1 1908:1 1962:1 1977:1 2152:1 2173:1 2216:1 2419:1 2433:1 2537:1 2602:1 
-105.8458660647831 397:1 426:1 997:1 1061:1 1280:1 1702:1 2037:1 2166:1 2196:1 2277:1 2474:1 
-38.56983259102561 8:1 37:1 90:1 212:1 216:1 247:1 277:1 498:1 518:1 580:1 629:1 807:1 822:1 847:1 959:1 962:1 1294:1 1300:1 1401:1 1422:1 1456:1 1463:1 1464:1 1574:1 1590:1 1592:1 1641:1 1812:1 1847:1 1903:1 1943:1 2027:1 2048:1 2101:1 2240:1 2458:1 2518:1 2540:1 2554:1 
-501.959074734546 223:1 320:1 436:1 593:1 888:1 954:1 1073:1 1186:1 1236:1 1583:1 1757:1 1916:1 2120:1 2216:1 2492:1 
-340.6026454544158 129:1 168:1 426:1 1001:1 1110:1 1497:1 1580:1 2537:1 
-690.5950067455971 521:1 1252:1 2252:1 2558:1 
-268.8103375171736 24:1 334:1 452:1 630:1 635:1 1001:1 1382:1 1393:1 1680:1 1756:1 1923:1 1941:1 2196:1 2586:1 
-221.3768769211492 289:1 426:1 830:1 1088:1 1683:1 1830:1 2273:1 
-329.151400064344 309:1 649:1 1191:1 1275:1 1437:1 1556:1 1569:1 1715:1 1835:1 2064:1 2283:1 2382:1 
-149.0590761626109 49:1 214:1 239:1 249:1 320:1 321:1 400:1 408:1 481:1 492:1 575:1 583:1 681:1 684:1 910:1 1135:1 1284:1 1288:1 1549:1 1582:1 1616:1 2018:1 2148:1 2169:1 2236:1 2378:1 2549:1 
-183.6161939534443 192:1 648:1 931:1 992:1 1357:1 1407:1 1449:1 1691:1 1725:1 2136:1 2173:1 2182:1 2607:1 
-1082.675739389023 243:1 458:1 1602:1 2485:1 
-612.9400555145172 360:1 473:1 1278:1 1738:1 2026:1 2385:1 
-133.4074643718609 23:1 95:1 597:1 654:1 797:1 1237:1 1284:1 1808:1 2330:1 
-211.2493953616753 23:1 49:1 258:1 354:1 472:1 527:1 648:1 851:1 954:1 962:1 972:1 1263:1 1288:1 1580:1 1583:1 1610:1 1973:1 2068:1 2430:1 2586:1 2598:1 
-112.2127244259733 146:1 426:1 715:1 1407:1 1638:1 2590:1 
-899.5342035702165 334:1 472:1 759:1 1282:1 1459:1 1808:1 2493:1 
-466.37779548853 496:1 503:1 597:1 1041:1 1580:1 1591:1 
-1082.675739389023 521:1 2424:1 
-1082.675739389023 2424:1 
-1082.675739389023 2590:1 
-1082.675739389023 2590:1 
-110.1528326251338 355:1 518:1 593:1 622:1 949:1 1363:1 1489:1 1548:1 1843:1 1852:1 2068:1 2283:1 2451:1 2537:1 
-444.1468692883813 3:1 413:1 635:1 715:1 832:1 935:1 1217:1 1958:1 2343:1 
-820.1923649252906 1202:1 1283:1 1702:1 
-265.010682905514 3:1 1216:1 
-1082.675739389023 1216:1 1451:1 2607:1 
-892.0316547024742 63:1 503:1 760:1 931:1 992:1 1808:1 2537:1 
-71.55470575028109 23:1 103:1 114:1 146:1 433:1 481:1 701:1 759:1 854:1 909:1 931:1 933:1 943:1 987:1 1236:1 1445:1 1451:1 1580:1 1602:1 1662:1 1756:1 1852:1 1969:1 1973:1 2013:1 2057:1 2148:1 2183:1 2230:1 2236:1 2251:1 2302:1 2376:1 2385:1 2533:1 
-398.5669000072312 593:1 1267:1 1696:1 2607:1 
-232.346489645215 2:1 53:1 111:1 180:1 223:1 333:1 409:1 458:1 503:1 521:1 550:1 593:1 642:1 656:1 682:1 888:1 894:1 1147:1 1206:1 1226:1 1237:1 1282:1 1340:1 1382:1 1441:1 1489:1 1548:1 1602:1 1643:1 1662:1 1725:1 1973:1 2173:1 2216:1 2246:1 2251:1 2292:1 2430:1 2433:1 2492:1 2613:1 2620:1 2627:1 
-266.0399540411844 426:1 767:1 1017:1 1079:1 1191:1 1249:1 1941:1 2081:1 2156:1 2236:1 2364:1 2433:1 
-701.487988280968 146:1 1696:1 1780:1 2607:1 
-162.6532470484006 103:1 496:1 918:1 1347:1 1748:1 1803:1 2023:1 2537:1 
-405.020242760909 169:1 179:1 223:1 231:1 333:1 458:1 491:1 628:1 801:1 832:1 931:1 1113:1 1272:1 1284:1 1293:1 1445:1 1580:1 1710:1 1916:1 1966:1 1969:1 2173:1 2182:1 2196:1 2317:1 2433:1 2459:1 2546:1 
-337.3607965733359 948:1 1224:1 1475:1 1614:1 2068:1 2607:1 
-209.6822266891587 2:1 179:1 353:1 426:1 475:1 524:1 588:1 713:1 810:1 910:1 931:1 950:1 962:1 1125:1 1643:1 1680:1 1723:1 2351:1 2574:1 
-109.0604682271317 18:1 48:1 109:1 267:1 277:1 357:1 530:1 607:1 727:1 862:1 873:1 963:1 1148:1 1201:1 1395:1 1455:1 1643:1 1821:1 1852:1 1936:1 1969:1 2036:1 2101:1 2116:1 2170:1 2329:1 2356:1 2499:1 2503:1 2507:1 2538:1 
-1082.675739389023 2415:1 
-422.3237569655436 282:1 494:1 521:1 820:1 1162:1 1226:1 1340:1 1554:1 1835:1 2121:1 2492:1 
-767.3413322211607 25:1 741:1 2126:1 
-421.7688139086999 20:1 87:1 477:1 1339:1 1434:1 1565:1 2302:1 2578:1 
-1082.675739389023 643:1 
-343.0578714783648 223:1 387:1 987:1 1079:1 1202:1 1342:1 1813:1 2215:1 2230:1 2245:1 2276:1 
-155.2176783568479 23:1 179:1 249:1 326:1 822:1 888:1 1347:1 1445:1 1789:1 1803:1 1908:1 2537:1 2562:1 2607:1 2629:1 
-309.0909486026725 326:1 426:1 1079:1 1237:1 1908:1 2182:1 2537:1 2607:1 
-170.4024963870758 26:1 65:1 120:1 226:1 239:1 359:1 501:1 682:1 707:1 806:1 1106:1 1228:1 1669:1 1792:1 1858:1 2002:1 2103:1 2135:1 2370:1 2588:1 2629:1 
-165.6713751417947 23:1 226:1 412:1 426:1 458:1 501:1 705:1 1046:1 1303:1 1410:1 1715:1 1792:1 1940:1 2173:1 2182:1 2571:1 2588:1 
-332.8769397333754 2:1 226:1 309:1 407:1 501:1 544:1 556:1 588:1 616:1 633:1 648:1 697:1 1290:1 1792:1 1875:1 2026:1 2144:1 2364:1 2401:1 2588:1 2629:1 
-237.2757810620171 426:1 676:1 1047:1 1410:1 1580:1 1587:1 1965:1 2144:1 2442:1 
-1082.675739389023 766:1 
-1082.675739389023 2587:1 
-1082.675739389023 355:1 
-767.758244866409 620:1 840:1 2400:1 
