svm_type nu_svc
kernel_type rbf
gamma 0.000274574
nr_class 3
total_sv 875
rho -9.37644 11.1 11.8879
label 0 1 2
probA -1.75886 -3.12563 -3.62627
probB -0.531237 0.251715 0.536596
nr_sv 475 206 194
SV
625.6536871396469 126.9622627334121 1159:1 
104.2075714650685 0 133:1 300:1 593:1 683:1 1370:1 2159:1 2353:1 2638:1 3433:1 
287.86232733802 246.750950083518 23:1 358:1 1175:1 1307:1 1508:1 1672:1 1813:1 2020:1 2208:1 2546:1 3094:1 3152:1 3203:1 
264.4953790350348 175.0465201650617 863:1 1471:1 1752:1 3244:1 
1108.733748687889 198.2698044944592 1203:1 1244:1 2186:1 2344:1 2412:1 
583.7185841167591 112.4629601827671 203:1 
0 145.0687491287676 205:1 402:1 2011:1 2385:1 3470:1 
0 48.31194591038747 164:1 265:1 2546:1 3371:1 
581.0657387645372 154.8987891125412 834:1 1137:1 1823:1 2852:1 3371:1 
165.0465679463641 42.94346323782746 445:1 1398:1 1592:1 2385:1 3289:1 
869.5949888728715 84.71123753298806 593:1 1203:1 1800:1 2735:1 3263:1 3289:1 3638:1 
0 42.14256248885545 825:1 1475:1 
309.16117059088 250.3789984437351 890:1 2674:1 3020:1 3031:1 3051:1 3077:1 3471:1 3512:1 
176.4753209664002 118.3171525194527 15:1 474:1 801:1 1088:1 1239:1 1348:1 1400:1 1687:1 1971:1 2352:1 2361:1 2579:1 2960:1 3019:1 3147:1 3326:1 3362:1 
160.1504532662491 0 27:1 125:1 2666:1 3357:1 
91.56176688964894 234.331686531773 194:1 606:1 863:1 1163:1 1785:1 2081:1 3537:1 
0 154.0912705172629 207:1 1711:1 1866:1 2630:1 3378:1 
6.659817112798998 0 172:1 232:1 357:1 386:1 744:1 859:1 864:1 1287:1 1714:1 2625:1 2754:1 2930:1 3020:1 3148:1 3391:1 3481:1 3605:1 
585.6674570778805 0 732:1 1954:1 2942:1 
147.0668285767262 318.5439826569617 99:1 639:1 1390:1 1561:1 2081:1 2959:1 3371:1 3605:1 
233.8876044508367 13.40363740920976 890:1 1175:1 1782:1 1785:1 2040:1 2245:1 2612:1 2667:1 2704:1 2722:1 2831:1 3020:1 3158:1 3509:1 
582.5361741297611 0 257:1 300:1 1007:1 3020:1 3158:1 
0 109.1961006705272 153:1 386:1 726:1 1163:1 1307:1 1372:1 1551:1 1671:1 2324:1 2831:1 3077:1 3371:1 3635:1 
312.4047419518425 56.51181992164051 570:1 1364:1 2637:1 
1108.733748687889 318.5439826569617 662:1 1275:1 2571:1 
447.7845023387814 48.82819812580115 153:1 1307:1 1382:1 2638:1 2759:1 2894:1 2959:1 
16.55487108908111 87.72967230132478 328:1 881:1 1747:1 1783:1 1977:1 2469:1 2610:1 
173.1943897327206 112.7556759827408 259:1 1152:1 2297:1 2642:1 
521.3780230636581 164.4527121396988 2634:1 
482.2484650098704 90.28168897309432 1318:1 
0 318.5439826569617 65:1 84:1 178:1 341:1 347:1 498:1 1236:1 1701:1 2450:1 2665:1 2828:1 3230:1 3416:1 
0 318.5439826569617 164:1 209:1 2089:1 2312:1 2971:1 3020:1 
1108.733748687889 318.5439826569617 593:1 890:1 1307:1 2557:1 2877:1 
417.4170566051774 0 381:1 463:1 830:1 845:1 1250:1 1546:1 2091:1 2159:1 2462:1 2895:1 3104:1 3106:1 3177:1 3280:1 3371:1 3481:1 3512:1 
320.788505121479 234.6326900396169 561:1 964:1 
0 52.76977294206615 732:1 982:1 1165:1 1307:1 1327:1 1601:1 1707:1 3077:1 
234.1176564529641 0 99:1 268:1 413:1 536:1 746:1 842:1 864:1 890:1 1244:1 1250:1 1340:1 1489:1 1557:1 1785:1 2456:1 2500:1 3086:1 3360:1 
662.6822522544339 31.48921646673459 250:1 520:1 872:1 890:1 998:1 1249:1 1250:1 1340:1 2475:1 2758:1 2940:1 2977:1 3020:1 3199:1 3371:1 3560:1 
102.3795495838269 318.5439826569617 732:1 1307:1 1327:1 1587:1 2139:1 2785:1 3020:1 3159:1 3452:1 
66.4175539108705 0 463:1 639:1 834:1 859:1 872:1 1107:1 1307:1 1574:1 1605:1 1676:1 1714:1 2159:1 2214:1 2297:1 2324:1 2409:1 2634:1 3006:1 3158:1 3177:1 3371:1 3410:1 3452:1 3509:1 3560:1 
466.5060112506938 0 457:1 618:1 1702:1 2045:1 2370:1 2455:1 
0 83.48260780955734 138:1 2136:1 2216:1 2987:1 
685.9306103605132 0 1325:1 1528:1 2136:1 2216:1 2888:1 2987:1 3051:1 3614:1 
812.5035392895076 141.6208512445019 187:1 275:1 312:1 698:1 834:1 1377:1 2409:1 2665:1 2717:1 3219:1 3230:1 3360:1 3509:1 
157.3763694433707 257.8524286832043 1361:1 2661:1 3289:1 3292:1 
553.5530063176973 0 1490:1 1902:1 2754:1 
0 159.1341941086256 890:1 935:1 1295:1 1475:1 1574:1 1923:1 3020:1 
212.2916010119854 145.2337665244262 374:1 1092:1 1163:1 1244:1 1452:1 1871:1 1917:1 1932:1 1970:1 2017:1 3007:1 3008:1 3575:1 
1108.733748687889 0 647:1 712:1 872:1 2754:1 2861:1 
35.45157334496371 4.5505989203178 89:1 250:1 350:1 881:1 907:1 1256:1 1377:1 1425:1 1551:1 2017:1 2208:1 2890:1 2986:1 3509:1 3621:1 
192.9353639154645 0 953:1 1037:1 1133:1 2526:1 2754:1 2861:1 
491.6498816494184 68.0273065516885 1776:1 1777:1 1788:1 1923:1 2200:1 2754:1 2831:1 2878:1 3123:1 3470:1 
526.1552458157804 0 217:1 613:1 1244:1 2027:1 2757:1 2982:1 
76.65463986722899 59.3222840477723 166:1 190:1 271:1 453:1 508:1 552:1 574:1 580:1 712:1 1431:1 1850:1 1913:1 2048:1 2355:1 2628:1 2671:1 3115:1 3364:1 3517:1 
0 0.2272626984619307 129:1 190:1 404:1 619:1 858:1 1805:1 2057:1 2075:1 2345:1 2526:1 3336:1 
375.6995020031571 110.9144557334187 712:1 2086:1 2448:1 2891:1 
259.5563671463154 0 132:1 258:1 748:1 792:1 1121:1 1196:1 1199:1 1894:1 2007:1 2200:1 2635:1 3051:1 3090:1 3367:1 3564:1 3598:1 3607:1 3614:1 
0 47.60569066205654 18:1 37:1 137:1 164:1 193:1 232:1 255:1 280:1 283:1 300:1 328:1 354:1 381:1 407:1 498:1 639:1 726:1 733:1 859:1 879:1 925:1 931:1 944:1 994:1 1000:1 1065:1 1092:1 1137:1 1163:1 1200:1 1246:1 1542:1 1661:1 1672:1 1715:1 1726:1 1867:1 1876:1 1907:1 1919:1 1962:1 2159:1 2208:1 2265:1 2271:1 2324:1 2511:1 2541:1 2557:1 2594:1 2595:1 2605:1 2625:1 2653:1 2665:1 2717:1 2730:1 2749:1 2785:1 2799:1 2831:1 2877:1 2924:1 2963:1 3007:1 3020:1 3027:1 3051:1 3094:1 3225:1 3269:1 3278:1 3345:1 3365:1 3371:1 3456:1 3616:1 3636:1 
193.3660323488774 82.50550770672994 860:1 1475:1 3394:1 
616.933091391315 0 988:1 1546:1 2159:1 2245:1 2619:1 2758:1 2799:1 3020:1 3046:1 3158:1 3371:1 
145.5933409554266 137.0702502558734 859:1 2799:1 3001:1 3158:1 3371:1 3605:1 
189.2641138610343 37.32955523387808 37:1 250:1 463:1 776:1 1869:1 2089:1 2208:1 2350:1 2484:1 2605:1 2651:1 2665:1 3309:1 
0 21.73788033198976 72:1 757:1 834:1 890:1 1261:1 1323:1 1358:1 1869:1 2691:1 2830:1 3020:1 3605:1 
295.9859993979046 261.0361444316297 2214:1 2831:1 3007:1 3306:1 
36.76529881453452 206.9061831588976 890:1 1137:1 1336:1 1658:1 3619:1 
854.1384787367648 201.8844015525878 402:1 960:1 1934:1 2535:1 3051:1 3490:1 
327.803849036298 0 49:1 1204:1 
1108.733748687889 318.5439826569617 273:1 834:1 
298.8475979202025 0 1726:1 1905:1 2791:1 2912:1 3573:1 
469.6019379244808 0 1726:1 1905:1 
629.1353535605865 0 206:1 794:1 1160:1 1836:1 2571:1 2754:1 2986:1 
949.3398256016197 183.6433028833536 457:1 799:1 1572:1 1773:1 2669:1 3321:1 
590.6068546551782 0 206:1 300:1 336:1 589:1 892:1 962:1 1335:1 1788:1 1912:1 2535:1 3166:1 3433:1 3580:1 
275.8719467585403 0 2385:1 3306:1 
1108.733748687889 318.5439826569617 1698:1 
130.8026016899113 0 327:1 752:1 1199:1 1370:1 1589:1 1735:1 1951:1 1956:1 2558:1 2561:1 2594:1 2711:1 3168:1 3393:1 3433:1 
243.7653637686424 0 1318:1 1527:1 2577:1 3401:1 
151.6079578004846 144.8163556171085 413:1 1776:1 2007:1 2203:1 2799:1 3433:1 
0 154.7783960491537 528:1 529:1 1455:1 1469:1 1489:1 2208:1 2265:1 2877:1 3051:1 3094:1 3360:1 3371:1 3392:1 
693.1566163978664 177.1026862740618 733:1 791:1 2758:1 3020:1 
614.5638300990745 51.56359873387353 746:1 1018:1 1510:1 2324:1 2487:1 3031:1 3077:1 3512:1 3521:1 3605:1 
345.5821846447921 89.03302216051802 308:1 356:1 569:1 834:1 1007:1 1244:1 1248:1 1287:1 1307:1 1352:1 1877:1 2208:1 2394:1 3126:1 
377.1004186738115 0 312:1 1007:1 1359:1 3020:1 3039:1 3298:1 
34.83983334851664 25.20103918539063 75:1 295:1 385:1 484:1 568:1 641:1 648:1 808:1 812:1 813:1 864:1 1327:1 1339:1 1455:1 1640:1 1666:1 1727:1 1819:1 1927:1 1937:1 1971:1 1998:1 2245:1 2272:1 2313:1 2427:1 2538:1 2682:1 2690:1 3053:1 3054:1 3138:1 3249:1 3301:1 
572.8703357650477 0 312:1 528:1 814:1 1120:1 1469:1 1785:1 2324:1 2856:1 3094:1 3158:1 3605:1 
184.4448709305937 4.537624204020905 599:1 732:1 2808:1 3031:1 
0 165.9218985042083 280:1 357:1 432:1 498:1 529:1 567:1 667:1 706:1 726:1 921:1 962:1 1160:1 1163:1 1175:1 1275:1 1452:1 1480:1 1655:1 1715:1 1813:1 2128:1 2189:1 2297:1 2595:1 2625:1 2627:1 2686:1 2717:1 2754:1 2812:1 3051:1 3214:1 3221:1 3225:1 3289:1 3297:1 3377:1 3433:1 3576:1 3621:1 
248.072819590066 51.63524733259916 168:1 210:1 338:1 706:1 839:1 1167:1 1450:1 1789:1 3568:1 3631:1 
208.0993090830087 0 308:1 312:1 1078:1 1247:1 1898:1 2385:1 2397:1 2878:1 3007:1 3016:1 3141:1 3320:1 3367:1 3371:1 3399:1 
0 37.60222718213456 2:1 164:1 219:1 300:1 356:1 472:1 503:1 529:1 639:1 672:1 677:1 962:1 1064:1 1247:1 1256:1 1308:1 1335:1 1455:1 1507:1 1546:1 1596:1 1714:1 1892:1 2017:1 2081:1 2265:1 2288:1 2324:1 2398:1 2906:1 2950:1 3016:1 3020:1 3051:1 3094:1 3121:1 3126:1 3247:1 3371:1 3439:1 3512:1 3635:1 
1108.733748687889 0 72:1 1335:1 1901:1 2982:1 3512:1 
1108.733748687889 163.7043265055106 1648:1 3458:1 3512:1 3638:1 
0 214.7085762734007 1327:1 3077:1 3625:1 
563.024929499941 106.5410216361729 597:1 918:1 1307:1 2548:1 
935.5393589551686 0 1543:1 1672:1 1934:1 
0 4.960620989651747 2:1 115:1 184:1 219:1 236:1 251:1 308:1 366:1 490:1 589:1 692:1 830:1 860:1 862:1 890:1 919:1 1057:1 1160:1 1163:1 1199:1 1250:1 1335:1 1340:1 1396:1 1486:1 1725:1 1776:1 1788:1 1796:1 1842:1 1869:1 1919:1 1923:1 2007:1 2030:1 2081:1 2159:1 2161:1 2208:1 2311:1 2324:1 2604:1 2621:1 2683:1 2898:1 3020:1 3123:1 3278:1 3320:1 3355:1 3371:1 3413:1 3452:1 3509:1 3619:1 3635:1 3636:1 
1108.733748687889 0 634:1 1382:1 2982:1 
62.79784407619249 0 99:1 124:1 559:1 639:1 692:1 732:1 860:1 883:1 1250:1 1434:1 1564:1 2019:1 2139:1 2208:1 2214:1 2278:1 2296:1 2410:1 2451:1 2665:1 2954:1 3020:1 3356:1 3371:1 3452:1 3509:1 3525:1 
682.8946617487983 0 312:1 832:1 1160:1 1869:1 2014:1 2078:1 2423:1 3278:1 
0 53.21867453813026 188:1 268:1 396:1 890:1 1250:1 1442:1 2017:1 2130:1 
380.1952324617645 163.7235431141317 699:1 1160:1 1292:1 1672:1 2014:1 3355:1 
228.2819374611459 140.4936844484027 2:1 194:1 300:1 312:1 347:1 504:1 535:1 623:1 894:1 1040:1 1136:1 1160:1 1174:1 1629:1 1776:1 1788:1 2014:1 2159:1 2346:1 2450:1 2828:1 2954:1 2961:1 3163:1 3191:1 3293:1 3355:1 3424:1 3546:1 
582.8800930897296 270.6052756525794 219:1 300:1 1184:1 1423:1 1597:1 2038:1 2831:1 3020:1 3158:1 3367:1 3580:1 
625.6536871396304 0 129:1 
112.065243557416 0 1901:1 2017:1 2159:1 3371:1 3580:1 
0 62.92550220127978 236:1 639:1 1442:1 1716:1 1954:1 2007:1 2028:1 2660:1 2912:1 2982:1 3042:1 3045:1 3289:1 3375:1 3635:1 
345.6125658036698 148.0080969677053 142:1 874:1 1735:1 2379:1 2696:1 2758:1 3020:1 
947.2534582101158 63.08328043372403 450:1 509:1 732:1 1244:1 1546:1 1793:1 1929:1 2208:1 3445:1 
338.4142344633373 255.6550724580529 446:1 732:1 834:1 1191:1 1624:1 2409:1 2462:1 2651:1 2735:1 2758:1 2805:1 2867:1 3020:1 3158:1 3371:1 3560:1 
1108.733748687889 0 1901:1 3512:1 
218.4815141274138 0 72:1 157:1 245:1 294:1 726:1 732:1 834:1 855:1 890:1 1177:1 1634:1 1735:1 1901:1 2159:1 2245:1 2324:1 2571:1 2706:1 2900:1 2986:1 3020:1 3512:1 3614:1 3621:1 3635:1 
144.036684564957 0 347:1 418:1 455:1 624:1 2455:1 
202.1142228345805 0 23:1 164:1 357:1 639:1 890:1 1000:1 1546:1 2214:1 2324:1 2385:1 2831:1 3371:1 3512:1 
491.3582088083575 0 37:1 44:1 1900:1 1933:1 2289:1 3023:1 
1108.733748687889 0 184:1 236:1 1392:1 1546:1 1599:1 2091:1 3077:1 3512:1 
186.0942140586676 217.9194241376049 65:1 101:1 142:1 367:1 988:1 1174:1 1615:1 1749:1 1776:1 2139:1 2669:1 2954:1 2983:1 
189.935624865305 0 23:1 366:1 402:1 653:1 747:1 1244:1 2208:1 2831:1 
229.3996348836436 146.0083265806758 232:1 976:1 1898:1 1965:1 2831:1 3445:1 
150.7762913550232 167.8756930646048 72:1 167:1 998:1 1042:1 1312:1 1416:1 2208:1 2265:1 2311:1 2682:1 3051:1 3062:1 3302:1 3504:1 
464.9983660882881 318.5439826569617 1923:1 2683:1 
466.6885233853743 0 962:1 2245:1 2975:1 3247:1 
587.355725624231 315.3741760914162 3374:1 
0 85.99127104091799 2:1 437:1 513:1 706:1 1097:1 1307:1 1533:1 1858:1 2687:1 3627:1 
0 154.5560733913481 372:1 1175:1 1658:1 2108:1 2242:1 2270:1 2365:1 2522:1 3094:1 3320:1 3342:1 3371:1 
251.8652383567225 70.42465179101507 250:1 1776:1 2245:1 2599:1 2758:1 3371:1 3390:1 
180.4727270300125 0 290:1 883:1 1007:1 1364:1 1655:1 3056:1 
734.3638107709191 65.38765865160248 392:1 1368:1 1686:1 1711:1 2534:1 2831:1 
256.493407678466 0 706:1 1040:1 1307:1 2081:1 2959:1 3020:1 3296:1 3301:1 3371:1 3597:1 
364.1993989236758 0 2145:1 3316:1 
0 38.59814753113685 35:1 66:1 99:1 137:1 164:1 268:1 290:1 300:1 312:1 389:1 433:1 442:1 472:1 566:1 590:1 593:1 608:1 615:1 639:1 671:1 672:1 732:1 745:1 786:1 814:1 822:1 830:1 842:1 859:1 864:1 868:1 883:1 943:1 962:1 966:1 1007:1 1042:1 1089:1 1136:1 1142:1 1175:1 1180:1 1212:1 1217:1 1241:1 1307:1 1344:1 1372:1 1376:1 1381:1 1406:1 1426:1 1436:1 1451:1 1489:1 1499:1 1505:1 1509:1 1546:1 1551:1 1686:1 1707:1 1726:1 1767:1 1776:1 1785:1 1796:1 1824:1 1853:1 1854:1 1859:1 1869:1 1876:1 2007:1 2033:1 2048:1 2074:1 2089:1 2127:1 2159:1 2170:1 2249:1 2271:1 2286:1 2289:1 2324:1 2408:1 2409:1 2456:1 2497:1 2594:1 2595:1 2625:1 2660:1 2727:1 2731:1 2770:1 2785:1 2787:1 2831:1 2883:1 2986:1 3020:1 3023:1 3072:1 3094:1 3119:1 3120:1 3147:1 3150:1 3173:1 3218:1 3225:1 3289:1 3297:1 3302:1 3329:1 3345:1 3371:1 3393:1 3432:1 3481:1 3483:1 3504:1 3635:1 3636:1 3638:1 
15.19215035865814 0 263:1 1175:1 1612:1 1788:1 2163:1 2982:1 3075:1 
150.7463415980802 84.21229612518869 15:1 260:1 295:1 1110:1 2098:1 2354:1 2794:1 3272:1 3533:1 
0 103.3728647382367 230:1 752:1 770:1 859:1 864:1 998:1 1160:1 1537:1 1612:1 2027:1 2543:1 2717:1 3094:1 3445:1 
1108.733748687889 0 2758:1 3077:1 3512:1 
408.9830655566209 234.8054840041578 37:1 263:1 268:1 779:1 1217:1 1442:1 1732:1 2986:1 
485.5571665918155 0 2304:1 
0 107.9478730444898 206:1 224:1 312:1 526:1 900:1 1161:1 1346:1 1384:1 1391:1 1590:1 1876:1 2242:1 2643:1 2735:1 2761:1 2762:1 3003:1 3020:1 3278:1 3342:1 3593:1 
0 153.4715622296023 353:1 649:1 703:1 859:1 1646:1 1753:1 2921:1 3020:1 3178:1 
316.9160988478135 0 1603:1 2604:1 2921:1 3020:1 
1108.733748687889 0 1139:1 2324:1 2391:1 2722:1 3512:1 
1108.733748687889 164.3771472561457 37:1 908:1 1757:1 1885:1 2007:1 2214:1 2888:1 
59.79742572236724 177.6835331627425 337:1 708:1 1162:1 1298:1 2386:1 2664:1 2831:1 2869:1 2887:1 2888:1 2976:1 3186:1 3570:1 
197.6620692032825 52.62318194664868 77:1 535:1 708:1 844:1 862:1 1870:1 2245:1 2954:1 3312:1 
0 77.88136023933829 1000:1 1007:1 1148:1 1227:1 1307:1 2296:1 2500:1 
493.4520940412761 0 251:1 732:1 847:1 1163:1 1785:1 1901:1 2027:1 2081:1 2674:1 3446:1 3512:1 
486.0207347929509 0 217:1 1890:1 2184:1 2612:1 2866:1 
1108.733748687889 0 593:1 698:1 1084:1 1097:1 1655:1 
583.840337043306 0 39:1 283:1 639:1 706:1 918:1 1007:1 1261:1 1788:1 1884:1 2500:1 3051:1 
107.9035548837653 246.9749025287563 2:1 132:1 1031:1 1175:1 1218:1 1668:1 2385:1 2535:1 3020:1 3362:1 
725.2177049542106 57.45344277758505 35:1 206:1 698:1 867:1 1307:1 1405:1 1508:1 1869:1 1952:1 2289:1 2409:1 2665:1 3020:1 3177:1 3512:1 
328.198111399314 0 19:1 706:1 732:1 1083:1 1246:1 2535:1 2574:1 2879:1 2914:1 3306:1 3445:1 3512:1 3563:1 3635:1 
173.2613868383145 0 295:1 300:1 308:1 312:1 377:1 391:1 563:1 706:1 812:1 865:1 1083:1 1086:1 1090:1 1430:1 1489:1 1663:1 1819:1 1943:1 2133:1 2245:1 2317:1 2331:1 2589:1 3445:1 
0 32.50335369191748 21:1 164:1 245:1 442:1 907:1 1229:1 1301:1 1714:1 1776:1 1919:1 2041:1 2535:1 3007:1 3020:1 3047:1 3077:1 3123:1 3509:1 
333.8332095827035 0 300:1 312:1 497:1 536:1 571:1 732:1 943:1 1244:1 1307:1 1486:1 1596:1 1648:1 2214:1 2831:1 3126:1 3158:1 3218:1 3427:1 3433:1 3597:1 3638:1 
0 42.07214442444284 99:1 164:1 3061:1 3630:1 
194.3849827296317 171.3307811180581 442:1 2027:1 2265:1 2487:1 2711:1 
165.6154608092 0 698:1 1112:1 
496.0343822657987 0 164:1 1175:1 2163:1 2245:1 2524:1 
1108.733748687889 186.1197311950119 2201:1 
561.3864560667768 0 1668:1 1786:1 2373:1 
0 60.95139025203336 142:1 365:1 1630:1 
268.14130168634 0 1312:1 1732:1 2831:1 3433:1 
0 49.96620586656574 1137:1 1335:1 1336:1 1661:1 3619:1 
0 172.6780623929397 164:1 1676:1 1701:1 1714:1 1890:1 2367:1 2983:1 3433:1 
25.73438146263256 0 2:1 37:1 82:1 96:1 164:1 168:1 194:1 205:1 217:1 245:1 283:1 300:1 312:1 327:1 336:1 356:1 407:1 442:1 472:1 579:1 593:1 639:1 726:1 751:1 779:1 830:1 842:1 859:1 879:1 907:1 920:1 960:1 1086:1 1144:1 1163:1 1175:1 1205:1 1307:1 1325:1 1327:1 1340:1 1380:1 1467:1 1513:1 1609:1 1655:1 1662:1 1686:1 1746:1 1776:1 1788:1 1858:1 1917:1 2081:1 2099:1 2159:1 2214:1 2248:1 2269:1 2324:1 2333:1 2500:1 2535:1 2625:1 2669:1 2683:1 2754:1 2766:1 2806:1 2877:1 2883:1 2934:1 2942:1 2986:1 3020:1 3091:1 3094:1 3104:1 3152:1 3158:1 3182:1 3225:1 3278:1 3297:1 3303:1 3339:1 3371:1 3388:1 3414:1 3493:1 3509:1 3512:1 3521:1 3537:1 3614:1 3636:1 
0 149.4588113593782 17:1 589:1 698:1 890:1 1188:1 1533:1 1676:1 1788:1 2159:1 2721:1 
126.7384894812446 0 863:1 1180:1 1325:1 1374:1 1688:1 2535:1 2947:1 2949:1 3179:1 3580:1 
135.7812419918097 0 1866:1 2535:1 3060:1 3371:1 
937.618334259852 0 1714:1 3031:1 
175.6688659658282 0 726:1 973:1 1164:1 1234:1 2225:1 2754:1 3398:1 3433:1 
324.0888548412292 0 1069:1 1782:1 2754:1 
476.09029300985 0 327:1 336:1 407:1 442:1 472:1 726:1 1084:1 1417:1 2385:1 2535:1 3371:1 3521:1 3614:1 
133.3746986044751 0 846:1 1503:1 1969:1 
142.1227954503229 0 366:1 2697:1 2817:1 
379.3199957236837 0 2113:1 2351:1 
474.9266402531683 157.1619105337518 250:1 639:1 674:1 1086:1 1163:1 1895:1 2385:1 2758:1 3104:1 3433:1 
125.5711274612252 48.80049745054363 135:1 268:1 1129:1 1537:1 1600:1 
0 111.4928095444402 356:1 534:1 859:1 995:1 1082:1 1175:1 1322:1 1480:1 1486:1 1499:1 1540:1 1848:1 2048:1 2085:1 2472:1 2682:1 2750:1 2886:1 3145:1 3371:1 3509:1 
389.4762590081958 25.96060366393259 183:1 626:1 639:1 712:1 732:1 1402:1 2245:1 2664:1 2772:1 3349:1 3461:1 
476.5524986010583 167.9295057584362 593:1 825:1 1175:1 2456:1 2906:1 3022:1 3168:1 
0 314.1979583713763 2:1 1163:1 1617:1 2516:1 
27.60460621678615 33.94282746943958 65:1 142:1 183:1 245:1 256:1 449:1 498:1 507:1 593:1 619:1 1074:1 1131:1 1153:1 1182:1 1279:1 1325:1 1630:1 1701:1 1904:1 2001:1 2203:1 2245:1 2641:1 2658:1 2669:1 2772:1 2783:1 2835:1 2929:1 2952:1 2955:1 3293:1 3357:1 3424:1 3445:1 3540:1 
222.2326606008726 0 292:1 723:1 821:1 1153:1 2908:1 2917:1 3495:1 
249.8926761881521 0 1175:1 1726:1 2566:1 2906:1 3214:1 3371:1 
693.1429490544911 0 283:1 506:1 1718:1 
107.3269985730738 32.00910853832002 181:1 914:1 1238:1 1366:1 1602:1 2048:1 2316:1 2608:1 3131:1 3431:1 
1108.733748687889 0 921:1 1631:1 
112.359185019491 74.44195773628209 42:1 593:1 732:1 993:1 1175:1 1221:1 1505:1 1630:1 1776:1 2017:1 2028:1 2245:1 2297:1 2456:1 2489:1 3371:1 3616:1 
133.8853369602573 0 316:1 413:1 1335:1 1776:1 2203:1 2214:1 2367:1 2511:1 3419:1 
525.0151645711301 0 2161:1 
91.37489650564069 0 127:1 530:1 593:1 706:1 893:1 1119:1 1175:1 1217:1 1219:1 1480:1 1894:1 2163:1 2243:1 2595:1 2768:1 2817:1 2825:1 3020:1 
137.8590040811897 0 312:1 787:1 1597:1 1630:1 1676:1 1714:1 1800:1 2017:1 2324:1 2409:1 2593:1 2758:1 2877:1 2982:1 3058:1 3147:1 3158:1 3320:1 3509:1 
382.1500612832554 0 793:1 
0 86.33618207212673 796:1 1007:1 2531:1 2866:1 3409:1 3445:1 3509:1 
391.8267283578844 318.5439826569617 286:1 1776:1 2017:1 2245:1 2257:1 3371:1 3514:1 
1108.733748687889 0 153:1 1312:1 1406:1 1726:1 
311.2224751746282 0 973:1 
142.0268763363329 0 1032:1 1119:1 1805:1 1894:1 2343:1 2768:1 3415:1 
786.3556341162214 71.12128762471879 138:1 369:1 
0 63.95236357877715 81:1 292:1 510:1 864:1 903:1 958:1 1292:1 1776:1 2203:1 2763:1 2996:1 3495:1 
0 15.25279853764891 96:1 291:1 312:1 438:1 442:1 536:1 591:1 651:1 740:1 787:1 805:1 822:1 864:1 876:1 923:1 969:1 1001:1 1099:1 1144:1 1163:1 1167:1 1175:1 1247:1 1262:1 1286:1 1307:1 1310:1 1321:1 1423:1 1441:1 1551:1 1572:1 1597:1 1638:1 1643:1 1649:1 1686:1 1726:1 1776:1 1790:1 1858:1 1906:1 1954:1 2052:1 2078:1 2188:1 2200:1 2243:1 2258:1 2297:1 2308:1 2324:1 2409:1 2435:1 2447:1 2456:1 2531:1 2669:1 2693:1 2722:1 2762:1 2812:1 3023:1 3051:1 3098:1 3108:1 3177:1 3201:1 3266:1 3320:1 3369:1 3371:1 3439:1 3457:1 3462:1 3509:1 3605:1 
85.24486008880591 0 219:1 692:1 832:1 1392:1 2052:1 2257:1 
0 207.629526923543 153:1 889:1 2161:1 2939:1 3077:1 
249.2816893672969 109.5790962781792 2076:1 2161:1 2610:1 3051:1 3616:1 
35.15619684880559 117.9376741382997 521:1 1196:1 1866:1 2205:1 2567:1 
0 24.84127337307803 363:1 509:1 529:1 1039:1 1105:1 1175:1 1551:1 1843:1 1847:1 1918:1 2255:1 2445:1 3051:1 3233:1 
0 139.1908365305378 369:1 1032:1 1059:1 2291:1 2306:1 2911:1 3415:1 
0 31.31614187193826 99:1 142:1 504:1 1015:1 1165:1 1263:1 1978:1 2699:1 3155:1 3220:1 3286:1 
337.3851836421829 115.1247822117954 21:1 1261:1 1908:1 3401:1 
356.0769738550049 0 316:1 893:1 1167:1 1401:1 1890:1 2245:1 2511:1 2593:1 3404:1 3627:1 3640:1 
0 318.5439826569617 132:1 716:1 2899:1 
39.45113067087748 0 192:1 510:1 921:1 1174:1 1292:1 1617:1 1777:1 1858:1 2359:1 2388:1 2480:1 2641:1 2762:1 2983:1 
221.9688913649168 0 1327:1 1552:1 2511:1 
450.7135403748218 283.8896084669613 732:1 1024:1 1676:1 3051:1 3439:1 
0 120.3552507209962 250:1 1327:1 1480:1 1698:1 1788:1 3051:1 3371:1 
0 112.0272930415099 1163:1 1417:1 1479:1 1848:1 2409:1 2553:1 3247:1 3289:1 
81.51702081219 0 2:1 23:1 268:1 442:1 536:1 547:1 674:1 780:1 830:1 888:1 893:1 1084:1 1133:1 1175:1 1307:1 1344:1 1785:1 1796:1 2208:1 2245:1 2265:1 2595:1 2877:1 3104:1 3114:1 3171:1 3335:1 3445:1 3468:1 3503:1 
95.53630017676292 0 703:1 893:1 1118:1 1783:1 1939:1 2324:1 2704:1 2747:1 3583:1 
780.9298996515911 64.83849165950096 428:1 2674:1 
225.0597284992816 0 703:1 1175:1 1735:1 1773:1 2245:1 2593:1 3371:1 3490:1 3583:1 
135.9943869170996 0 316:1 1181:1 1435:1 1788:1 2208:1 2906:1 2982:1 3405:1 
55.64256306723181 0 153:1 703:1 1307:1 1312:1 1609:1 1685:1 1876:1 2027:1 2571:1 2975:1 3020:1 3162:1 3229:1 3583:1 
147.1430470817036 0 59:1 703:1 1083:1 2163:1 3583:1 3641:1 
0 150.6334803709192 1045:1 2132:1 2456:1 2758:1 3158:1 
0 8.439086230980521 15:1 32:1 99:1 100:1 235:1 295:1 312:1 1133:1 1166:1 1247:1 1356:1 1447:1 1523:1 1547:1 1630:1 1635:1 1776:1 1814:1 1816:1 1818:1 1943:1 1971:1 2048:1 2081:1 2252:1 2354:1 2479:1 2553:1 2669:1 3084:1 3232:1 3367:1 3439:1 3445:1 3475:1 3547:1 
0 26.50828665437266 160:1 307:1 471:1 476:1 527:1 658:1 1059:1 1943:1 2331:1 2342:1 2479:1 2553:1 2708:1 2864:1 3475:1 
255.6440084416119 0 2139:1 2633:1 
0 111.8749911821497 199:1 261:1 726:1 732:1 833:1 1073:1 1111:1 1153:1 1486:1 1776:1 2499:1 2730:1 2922:1 
0 7.17058911154891 15:1 26:1 46:1 52:1 54:1 58:1 67:1 95:1 96:1 99:1 116:1 156:1 193:1 194:1 295:1 307:1 308:1 312:1 322:1 356:1 366:1 434:1 442:1 459:1 465:1 474:1 476:1 479:1 483:1 495:1 579:1 591:1 593:1 600:1 614:1 639:1 696:1 702:1 707:1 718:1 726:1 777:1 787:1 798:1 799:1 812:1 824:1 857:1 863:1 865:1 947:1 969:1 988:1 998:1 1011:1 1024:1 1043:1 1060:1 1104:1 1144:1 1149:1 1163:1 1175:1 1193:1 1194:1 1199:1 1239:1 1245:1 1247:1 1262:1 1265:1 1287:1 1300:1 1310:1 1327:1 1335:1 1338:1 1340:1 1364:1 1374:1 1385:1 1400:1 1423:1 1480:1 1486:1 1492:1 1519:1 1558:1 1572:1 1649:1 1663:1 1686:1 1687:1 1688:1 1712:1 1714:1 1716:1 1726:1 1729:1 1775:1 1776:1 1785:1 1788:1 1807:1 1839:1 1840:1 1858:1 1859:1 1873:1 1895:1 1935:1 1937:1 1938:1 1940:1 1943:1 1946:1 1954:1 1963:1 1971:1 1988:1 2007:1 2028:1 2044:1 2062:1 2081:1 2105:1 2161:1 2200:1 2218:1 2228:1 2243:1 2274:1 2275:1 2276:1 2284:1 2322:1 2324:1 2354:1 2390:1 2400:1 2431:1 2456:1 2468:1 2477:1 2487:1 2522:1 2531:1 2573:1 2578:1 2595:1 2604:1 2635:1 2647:1 2650:1 2659:1 2669:1 2679:1 2682:1 2690:1 2706:1 2744:1 2750:1 2762:1 2813:1 2831:1 2848:1 2864:1 2877:1 2904:1 2928:1 2943:1 2947:1 2949:1 2965:1 2986:1 2989:1 3004:1 3006:1 3020:1 3054:1 3063:1 3088:1 3097:1 3107:1 3108:1 3140:1 3154:1 3169:1 3174:1 3198:1 3204:1 3207:1 3212:1 3248:1 3250:1 3289:1 3310:1 3320:1 3326:1 3332:1 3335:1 3371:1 3409:1 3453:1 3475:1 3509:1 3531:1 3537:1 3547:1 3615:1 3632:1 
53.98957633980999 0 219:1 312:1 356:1 472:1 627:1 639:1 672:1 814:1 830:1 849:1 864:1 883:1 890:1 1018:1 1100:1 1163:1 1175:1 1244:1 1247:1 1340:1 1597:1 1617:1 1628:1 1788:1 1934:1 1977:1 2028:1 2081:1 2114:1 2324:1 2503:1 2942:1 2945:1 3094:1 3168:1 3225:1 3504:1 3509:1 3605:1 
234.0444705519372 42.72514136398232 900:1 1029:1 2986:1 
0 6.46563856651656 2:1 26:1 62:1 72:1 96:1 110:1 216:1 282:1 308:1 354:1 356:1 359:1 388:1 434:1 448:1 493:1 532:1 555:1 579:1 591:1 593:1 598:1 633:1 635:1 703:1 713:1 719:1 787:1 799:1 803:1 852:1 969:1 1000:1 1024:1 1087:1 1121:1 1140:1 1143:1 1163:1 1199:1 1251:1 1262:1 1277:1 1287:1 1327:1 1335:1 1343:1 1365:1 1381:1 1415:1 1427:1 1474:1 1492:1 1495:1 1520:1 1572:1 1649:1 1679:1 1686:1 1700:1 1726:1 1750:1 1776:1 1788:1 1790:1 1858:1 1874:1 1899:1 1931:1 1938:1 2025:1 2062:1 2161:1 2183:1 2234:1 2260:1 2282:1 2286:1 2292:1 2322:1 2324:1 2456:1 2473:1 2481:1 2487:1 2522:1 2531:1 2561:1 2677:1 2700:1 2706:1 2728:1 2750:1 2780:1 2831:1 2849:1 2877:1 2918:1 2942:1 3242:1 3277:1 3320:1 3329:1 3392:1 3409:1 3432:1 3442:1 3509:1 3519:1 3548:1 3591:1 3625:1 
605.4730278962517 192.6917089508313 442:1 2039:1 2571:1 2771:1 3120:1 3520:1 
108.6813673130957 39.51609163400371 783:1 1393:1 1845:1 2149:1 2236:1 2469:1 3020:1 
546.0653263650249 0 1536:1 1735:1 2866:1 3020:1 3094:1 3166:1 3351:1 3445:1 3635:1 
350.9128616366833 0 175:1 498:1 593:1 1701:1 1987:1 2932:1 2983:1 3068:1 
958.4900092621348 0 2155:1 3470:1 
626.4852836780188 0 3436:1 
29.52888883788959 0 152:1 164:1 213:1 312:1 354:1 859:1 1084:1 1163:1 1498:1 1623:1 1866:1 1953:1 1975:1 2208:1 2866:1 3007:1 3020:1 3050:1 3051:1 
0 19.42839873383674 42:1 101:1 174:1 316:1 338:1 504:1 703:1 962:1 998:1 1143:1 1540:1 1703:1 2334:1 2511:1 2602:1 2798:1 2930:1 2971:1 3297:1 3583:1 3640:1 
0 137.7847769556405 2:1 316:1 442:1 564:1 703:1 772:1 786:1 830:1 864:1 888:1 908:1 985:1 1796:1 2511:1 2625:1 2831:1 2982:1 3289:1 3335:1 3583:1 3640:1 
233.9165807329988 0 593:1 960:1 1199:1 1316:1 1788:1 2682:1 3392:1 3566:1 
172.0549566591377 0 11:1 763:1 1489:1 2048:1 2866:1 3025:1 3635:1 
975.359050083414 0 1623:1 3635:1 
0 66.34487381286553 540:1 726:1 834:1 919:1 1009:1 1163:1 1327:1 1480:1 1533:1 1605:1 2163:1 2397:1 2495:1 2732:1 2791:1 3051:1 3317:1 3404:1 3445:1 3635:1 
0 134.6670190495021 1032:1 1805:1 2952:1 3167:1 3415:1 
0 42.34369408871869 172:1 245:1 442:1 993:1 1393:1 1486:1 1630:1 1785:1 1796:1 2002:1 2214:1 2324:1 2447:1 3020:1 3051:1 3077:1 3177:1 3619:1 
0 273.4905578427407 184:1 223:1 575:1 687:1 893:1 1000:1 1244:1 1800:1 1869:1 2496:1 2553:1 2735:1 2818:1 2831:1 2906:1 3289:1 3305:1 
52.19921778723695 106.9380238467894 2:1 177:1 251:1 300:1 783:1 822:1 995:1 1163:1 1335:1 1560:1 1655:1 1890:1 2214:1 2324:1 2456:1 2531:1 2706:1 2762:1 2866:1 2877:1 2942:1 3143:1 3147:1 3302:1 3481:1 3509:1 
0 134.2148180695536 1300:1 1726:1 2706:1 2785:1 2982:1 3042:1 3235:1 3371:1 
156.7403639057049 318.5439826569617 470:1 962:1 1334:1 1726:1 3139:1 3289:1 3362:1 
0 54.45584491016483 51:1 316:1 868:1 890:1 1217:1 2048:1 2245:1 2478:1 2942:1 3504:1 
797.156168773441 0 893:1 962:1 1307:1 2496:1 
0 129.8371098728174 143:1 184:1 312:1 406:1 463:1 890:1 1337:1 2417:1 2561:1 2866:1 3031:1 3051:1 3223:1 3627:1 
97.82326135082474 0 744:1 1480:1 1974:1 2245:1 2495:1 3024:1 
0 158.9219814114173 156:1 616:1 820:1 1003:1 1124:1 1500:1 1815:1 2665:1 2822:1 3550:1 
0 69.23898744730661 542:1 996:1 2017:1 2495:1 2959:1 3534:1 3640:1 
807.6885734233307 0 732:1 1175:1 1307:1 1788:1 2132:1 2982:1 
0 160.4146357403654 333:1 402:1 488:1 535:1 1771:1 2415:1 2479:1 
231.5794119581274 0 529:1 2208:1 2456:1 2553:1 3572:1 
281.6468170303556 84.14501885366732 99:1 639:1 691:1 1554:1 1860:1 2337:1 3572:1 
0 146.3760075172187 366:1 589:1 1244:1 2159:1 2612:1 2831:1 
148.8881433066745 57.82458256708591 357:1 639:1 1256:1 1920:1 2121:1 2208:1 2243:1 2439:1 2627:1 2880:1 3020:1 3188:1 3573:1 
58.64847486429647 0 23:1 137:1 556:1 726:1 859:1 890:1 1548:1 1735:1 2121:1 2208:1 2245:1 2684:1 2986:1 3211:1 3225:1 3322:1 3371:1 3481:1 
139.4103063770673 0 1133:1 2090:1 
170.9023070978858 0 164:1 732:1 1876:1 2081:1 2245:1 3020:1 
441.1505307996442 36.43185347513745 525:1 552:1 712:1 1861:1 
94.00236578385362 0 230:1 489:1 731:1 922:1 1408:1 1546:1 1757:1 2866:1 2982:1 3266:1 3445:1 
687.5680262484672 248.872985453597 407:1 1869:1 2817:1 3614:1 
1108.733748687889 0 3614:1 
1037.307786059899 0 72:1 3614:1 
349.007861775619 0 747:1 1300:1 2028:1 2245:1 2409:1 3225:1 
0 182.5416857672637 72:1 398:1 703:1 1199:1 1709:1 1876:1 2417:1 2830:1 3509:1 3627:1 
0 53.73180927058596 341:1 416:1 619:1 712:1 723:1 1078:1 1174:1 1199:1 1335:1 2772:1 2776:1 2983:1 3293:1 3350:1 3353:1 3434:1 3445:1 
210.918367016458 73.66624640406789 2:1 250:1 498:1 593:1 665:1 736:1 830:1 1004:1 1018:1 1147:1 1275:1 1307:1 1327:1 1344:1 1565:1 2297:1 2346:1 3268:1 3567:1 
156.7877996444283 0 1979:1 2982:1 3130:1 
0 34.65437419000039 49:1 135:1 268:1 1890:1 3051:1 
66.42773255264474 0 23:1 923:1 1423:1 1572:1 2007:1 2043:1 2208:1 2286:1 2878:1 3120:1 3320:1 3445:1 
1108.733748687889 115.7020764480238 878:1 2553:1 
148.4737669043503 154.4868573951344 1726:1 2007:1 2286:1 2297:1 3020:1 3031:1 3319:1 
0 45.13867428122703 2:1 356:1 388:1 1967:1 
158.0172373836196 0 366:1 1358:1 2089:1 2456:1 2762:1 
223.8240168409024 143.4974624919 66:1 214:1 2615:1 
723.9052155052842 0 312:1 640:1 643:1 1967:1 
210.7519110755386 0 848:1 3399:1 
0 60.29931854084344 2:1 250:1 859:1 1177:1 1247:1 1617:1 3168:1 
104.6358368058086 0 995:1 1199:1 1340:1 1499:1 2007:1 2200:1 2214:1 2831:1 
372.0893894548949 0 747:1 876:1 1175:1 
964.3715475847849 103.835406383561 591:1 3371:1 
380.2405099539961 0 356:1 1199:1 1788:1 
0 85.36491664964832 1119:1 1426:1 2933:1 3051:1 
0 142.217298166706 530:1 1097:1 1146:1 1788:1 2078:1 
108.909103432807 0 373:1 640:1 1551:1 1936:1 
0 82.52055499111108 1195:1 2078:1 
313.1409552033302 318.5439826569617 885:1 1081:1 2221:1 
391.8717381571366 83.91129261734483 110:1 703:1 1655:1 
0 266.9803839230882 1099:1 1890:1 2531:1 2879:1 
212.5778701563878 0 540:1 1725:1 
852.9495999210081 0 312:1 595:1 2728:1 3046:1 
0 318.5439826569617 354:1 2531:1 3583:1 
0 107.6187597739656 1340:1 2007:1 2531:1 3290:1 
0 318.5439826569617 2515:1 2531:1 2728:1 3302:1 
416.9865371899259 0 666:1 3514:1 
635.0276553160508 262.0321627353212 1247:1 1597:1 2531:1 
0 71.50911284949612 192:1 194:1 316:1 367:1 1199:1 1636:1 2388:1 2511:1 2664:1 2831:1 
547.9626018927949 0 23:1 893:1 1741:1 2002:1 2200:1 2208:1 2353:1 2498:1 2513:1 3094:1 
244.3958655035769 88.17450720120718 502:1 1764:1 2022:1 3475:1 
398.3058537333804 0 732:1 1235:1 1649:1 2214:1 2245:1 2248:1 
209.6849745916533 0 2778:1 2986:1 
0 116.6595811043739 2161:1 2265:1 2778:1 3091:1 3445:1 
434.6094219341832 0 99:1 1490:1 1785:1 1858:1 2767:1 
661.5157673913461 0 1499:1 2121:1 2811:1 3224:1 3433:1 
432.6579544234874 0 1805:1 2663:1 
0 176.9509626855538 65:1 102:1 173:1 191:1 366:1 402:1 416:1 504:1 559:1 623:1 915:1 1153:1 1201:1 2034:1 2139:1 2372:1 2704:1 2889:1 2954:1 3253:1 3293:1 3363:1 3540:1 
119.375212832101 0 96:1 1317:1 2137:1 
420.731450696905 69.67099720336471 639:1 893:1 907:1 1246:1 1275:1 1480:1 2691:1 3020:1 3638:1 
98.09795179913417 0 2:1 316:1 356:1 388:1 1995:1 
0 134.0478318544459 1084:1 1199:1 1396:1 1630:1 2035:1 2052:1 2409:1 2593:1 2878:1 3371:1 3404:1 3640:1 
0 163.4356544962602 510:1 1119:1 1475:1 1861:1 2001:1 2364:1 2371:1 2991:1 
283.9334626924708 0 23:1 217:1 312:1 366:1 775:1 822:1 856:1 1335:1 1560:1 2214:1 2593:1 2697:1 3020:1 3026:1 3091:1 3392:1 3445:1 3614:1 
882.7217297428864 0 316:1 442:1 548:1 746:1 893:1 2511:1 2889:1 3445:1 3449:1 
0 219.1534068364113 292:1 402:1 593:1 708:1 726:1 881:1 2194:1 2216:1 2254:1 2828:1 2886:1 2954:1 3293:1 3350:1 3445:1 
0 96.80816836771569 859:1 1247:1 1261:1 2007:1 2385:1 2456:1 2531:1 3203:1 
0 71.56908012820539 1659:1 1663:1 2450:1 3188:1 3354:1 
0 89.34588233208947 402:1 588:1 1631:1 3567:1 
0 318.5439826569617 1163:1 1735:1 1776:1 2456:1 3371:1 3445:1 
0 113.227811504751 48:1 49:1 193:1 205:1 238:1 245:1 357:1 366:1 401:1 472:1 505:1 517:1 665:1 859:1 998:1 1068:1 1101:1 1134:1 1213:1 1392:1 1546:1 1572:1 1583:1 1668:1 1676:1 1788:1 1799:1 1876:1 1933:1 2059:1 2135:1 2232:1 2243:1 2287:1 2605:1 2738:1 2785:1 2799:1 2827:1 3038:1 3094:1 3156:1 3177:1 3371:1 3376:1 
150.7583281270606 318.5439826569617 191:1 414:1 510:1 535:1 732:1 921:1 1262:1 1701:1 2913:1 3362:1 
0 61.56333121097632 21:1 299:1 328:1 832:1 859:1 938:1 967:1 1098:1 1250:1 1371:1 1574:1 1674:1 1954:1 1977:1 2037:1 2162:1 2417:1 2440:1 2546:1 2756:1 3005:1 3079:1 3221:1 3627:1 
0 13.512572963907 20:1 21:1 313:1 328:1 545:1 565:1 682:1 859:1 880:1 888:1 997:1 1073:1 1097:1 1183:1 1327:1 1541:1 1849:1 2037:1 2089:1 2327:1 2417:1 2440:1 2546:1 2706:1 2756:1 2824:1 3079:1 3583:1 3627:1 
455.7855257314633 0 1273:1 
496.5201999123039 0 594:1 1290:1 1647:1 1734:1 2210:1 
0 30.10845441240393 859:1 888:1 890:1 971:1 1084:1 1250:1 1599:1 1977:1 2037:1 2186:1 2611:1 2657:1 3198:1 3348:1 3426:1 
392.9078427684137 0 807:1 2879:1 
0 287.2056610275039 23:1 732:1 1256:1 
214.9006941574933 100.8465567778508 592:1 760:1 3120:1 
362.0028169315357 0 2392:1 
209.1375717081586 0 745:1 1045:1 1287:1 2091:1 2385:1 
0 30.35365154836649 402:1 509:1 639:1 703:1 893:1 981:1 1045:1 1057:1 1163:1 1314:1 1934:1 2085:1 2159:1 2553:1 2625:1 2717:1 2826:1 2986:1 3020:1 3219:1 3361:1 3452:1 3636:1 
0 37.31613653760401 19:1 82:1 164:1 245:1 308:1 703:1 732:1 830:1 864:1 893:1 962:1 993:1 1163:1 1221:1 1389:1 1630:1 1726:1 1876:1 1985:1 2085:1 2150:1 2165:1 2176:1 2403:1 2772:1 2866:1 2889:1 3020:1 3166:1 3289:1 3293:1 3445:1 3484:1 
1108.733748687889 0 33:1 668:1 1040:1 1864:1 2187:1 3571:1 
0 29.68319271029408 638:1 711:1 1084:1 1876:1 1890:1 2161:1 2384:1 2459:1 2786:1 3020:1 3320:1 3596:1 
538.9107521020278 0 663:1 3024:1 
453.6165032510557 0 932:1 2617:1 
0 73.62173777787052 535:1 644:1 890:1 1250:1 1626:1 1776:1 1788:1 2106:1 2595:1 2934:1 3020:1 3289:1 
1108.733748687889 41.47211441003636 37:1 1158:1 1951:1 
0 42.35891169278761 2:1 442:1 639:1 732:1 842:1 855:1 890:1 1776:1 1951:1 2385:1 2828:1 2986:1 
0 42.10730646687769 611:1 890:1 1669:1 2758:1 
76.39894032446529 254.7649527976623 497:1 510:1 616:1 1109:1 1262:1 1335:1 2415:1 3350:1 3543:1 
315.6457803615075 0 639:1 644:1 932:1 1776:1 2617:1 3470:1 
232.9390560194085 0 292:1 3495:1 
0 94.33882268502826 164:1 316:1 380:1 512:1 639:1 796:1 932:1 1175:1 1574:1 1804:1 2010:1 2094:1 2243:1 2323:1 2511:1 2531:1 2605:1 2617:1 2665:1 2866:1 3007:1 3020:1 3104:1 3136:1 3289:1 3322:1 3433:1 3611:1 
735.4291125585212 0 732:1 2409:1 3635:1 
0 71.72567729610532 251:1 300:1 316:1 442:1 514:1 566:1 571:1 692:1 859:1 883:1 1000:1 1175:1 1187:1 1903:1 2028:1 2081:1 2409:1 2511:1 2906:1 2927:1 2961:1 2975:1 2982:1 3042:1 3289:1 3509:1 3524:1 3629:1 
0 318.5439826569617 163:1 962:1 1297:1 1336:1 1658:1 1716:1 2102:1 2555:1 2689:1 2906:1 3297:1 
0 220.4967635677179 250:1 469:1 536:1 780:1 923:1 1167:1 1196:1 1585:1 1624:1 1714:1 1800:1 1923:1 1933:1 2055:1 2402:1 2762:1 2877:1 3616:1 
0 56.33217844616249 59:1 300:1 366:1 442:1 747:1 780:1 890:1 1163:1 1167:1 1307:1 1373:1 1491:1 1513:1 1895:1 2055:1 2089:1 2324:1 2409:1 2697:1 2758:1 3020:1 3166:1 3371:1 3509:1 3616:1 
388.6976641080075 0 312:1 370:1 932:1 1788:1 2048:1 2617:1 2831:1 2879:1 2934:1 3020:1 3306:1 
1108.733748687889 0 932:1 1788:1 2617:1 2934:1 
240.8453038245559 0 316:1 2511:1 
278.9002869900498 0 81:1 732:1 736:1 2996:1 
115.9397506906988 0 383:1 779:1 932:1 1579:1 1604:1 1889:1 2103:1 2315:1 2617:1 2837:1 3031:1 3271:1 3322:1 3349:1 3472:1 3499:1 
72.40120452198325 0 2:1 132:1 141:1 1310:1 1335:1 1796:1 1863:1 2007:1 2080:1 2413:1 2447:1 2617:1 3072:1 3322:1 
239.1387598150176 0 1668:1 1828:1 2786:1 3404:1 
107.8704089697198 99.71846441229646 30:1 191:1 402:1 535:1 593:1 619:1 708:1 1874:1 2318:1 2354:1 2479:1 2776:1 3231:1 3395:1 3445:1 3495:1 
139.7890089289248 0 23:1 498:1 663:1 888:1 908:1 1175:1 1310:1 2208:1 2297:1 2548:1 2730:1 2952:1 2986:1 3024:1 3322:1 
275.9988122723597 0 577:1 1040:1 1199:1 
71.73299955972072 0 250:1 312:1 510:1 787:1 893:1 905:1 1160:1 1307:1 1340:1 1546:1 1596:1 2002:1 2208:1 2245:1 2756:1 2866:1 3158:1 3445:1 3504:1 
0 199.6670259420053 890:1 1596:1 1934:1 
746.5840909996405 0 2332:1 2889:1 
12.84945945573072 81.94531158714706 77:1 510:1 535:1 553:1 1174:1 2139:1 2699:1 3445:1 
0 5.771987881927505 2:1 250:1 510:1 732:1 859:1 864:1 890:1 893:1 1163:1 1217:1 1335:1 1480:1 1621:1 1858:1 2002:1 2028:1 2163:1 2756:1 2995:1 3020:1 3289:1 3382:1 3445:1 3583:1 
0 57.03731303166788 2:1 164:1 251:1 726:1 732:1 1163:1 1244:1 1307:1 1340:1 1397:1 1858:1 1919:1 2017:1 2029:1 2170:1 2324:1 2522:1 2758:1 2961:1 3020:1 3166:1 3289:1 3509:1 
50.13890715423394 0 2:1 164:1 300:1 312:1 672:1 732:1 893:1 919:1 1160:1 1335:1 1546:1 1686:1 1714:1 1735:1 2014:1 2048:1 2089:1 2385:1 2519:1 2652:1 2754:1 2866:1 3020:1 3123:1 3166:1 3289:1 3360:1 3433:1 3605:1 
44.7325123938791 0 132:1 185:1 235:1 295:1 439:1 527:1 645:1 1240:1 1357:1 1675:1 1930:1 1943:1 2081:1 2115:1 2120:1 2245:1 2347:1 2479:1 2713:1 2947:1 3204:1 3231:1 3248:1 3395:1 3475:1 3594:1 3639:1 
34.43121845752623 0 61:1 295:1 391:1 577:1 732:1 1245:1 1310:1 1688:1 1971:1 2081:1 2245:1 2354:1 2573:1 3140:1 3395:1 3475:1 
357.9459122281997 164.5190409574322 357:1 859:1 1480:1 1491:1 1714:1 2007:1 2208:1 3037:1 3188:1 3291:1 
123.3587191833928 0 26:1 117:1 283:1 312:1 356:1 442:1 472:1 890:1 993:1 1136:1 1175:1 1373:1 1533:1 1544:1 1626:1 1630:1 1686:1 2106:1 2674:1 2717:1 2866:1 2982:1 3030:1 3272:1 3382:1 3481:1 
576.9309242081007 0 1803:1 
0 38.88391458145414 2:1 245:1 251:1 567:1 859:1 890:1 1064:1 1307:1 1763:1 2170:1 2200:1 2447:1 2758:1 2986:1 3094:1 3247:1 3320:1 3371:1 3509:1 3575:1 
112.6981317357607 0 2017:1 2324:1 2633:1 3158:1 3509:1 
0 96.49132421182276 300:1 402:1 656:1 738:1 1225:1 1272:1 1327:1 2783:1 2828:1 2954:1 
293.7742791312802 0 84:1 755:1 2094:1 
0 70.26399142246993 442:1 510:1 948:1 1059:1 1307:1 1394:1 2000:1 2028:1 2163:1 2756:1 2977:1 
300.7145697459557 0 99:1 300:1 1066:1 2200:1 2883:1 
0 113.9800748311866 154:1 366:1 402:1 873:1 1074:1 1776:1 2612:1 2831:1 3293:1 
248.2739257777597 228.8973762989665 59:1 1175:1 1194:1 1221:1 1373:1 1968:1 2085:1 2625:1 2831:1 3007:1 
0 72.09991129314314 145:1 523:1 616:1 1202:1 1986:1 
145.957064604132 0 510:1 1417:1 2002:1 2756:1 3605:1 
148.0276266458442 0 23:1 732:1 893:1 1649:1 1794:1 2208:1 
429.2630837063218 0 1007:1 2889:1 2998:1 
331.6506718646699 27.44120930250242 138:1 2339:1 2835:1 2907:1 3528:1 3570:1 
58.3943971282038 0 155:1 316:1 893:1 1785:1 1876:1 2149:1 2469:1 2511:1 3439:1 
0 95.73187522277682 509:1 706:1 865:1 1327:1 1613:1 1794:1 2479:1 2505:1 2947:1 3122:1 3215:1 3248:1 
0 150.3413223304063 356:1 463:1 579:1 639:1 732:1 932:1 1108:1 1244:1 1475:1 1480:1 1724:1 1869:1 1890:1 1941:1 2037:1 2085:1 2243:1 2617:1 2665:1 2670:1 2676:1 3091:1 3359:1 3433:1 
170.5804515009047 239.1304727374112 482:1 2245:1 2835:1 3293:1 
0 97.5242265807621 1163:1 1307:1 2831:1 2860:1 3371:1 3393:1 3635:1 
0 318.5439826569617 23:1 71:1 356:1 437:1 463:1 526:1 893:1 932:1 1715:1 1785:1 1929:1 2245:1 2617:1 2665:1 2831:1 2877:1 2942:1 3020:1 3122:1 3147:1 3171:1 3225:1 3237:1 3297:1 3404:1 
0 180.2285986431866 59:1 96:1 212:1 312:1 356:1 463:1 526:1 687:1 799:1 920:1 993:1 1244:1 1256:1 1417:1 1539:1 1572:1 1726:1 1929:1 2048:1 2403:1 2439:1 2614:1 2665:1 2758:1 3104:1 3158:1 3188:1 3225:1 3320:1 3371:1 3404:1 
0 318.5439826569617 509:1 1059:1 1319:1 2245:1 2977:1 3293:1 3353:1 3362:1 
23.97128892835719 180.7176358865815 25:1 211:1 300:1 316:1 356:1 650:1 878:1 933:1 960:1 998:1 1673:1 1676:1 1890:1 2161:1 2683:1 3413:1 
0 318.5439826569617 23:1 163:1 312:1 356:1 463:1 639:1 879:1 893:1 1275:1 1327:1 1335:1 1336:1 1340:1 1776:1 1785:1 2159:1 2665:1 3020:1 3094:1 
517.0587417286818 318.5439826569617 142:1 180:1 247:1 337:1 504:1 1040:1 1074:1 1111:1 1630:1 2357:1 2831:1 3353:1 
0 38.82012602761966 23:1 164:1 358:1 442:1 599:1 639:1 644:1 879:1 893:1 962:1 1018:1 1221:1 1307:1 1327:1 1490:1 1672:1 1686:1 2007:1 2048:1 2085:1 2159:1 2170:1 2214:1 2460:1 2534:1 2785:1 2795:1 2808:1 2942:1 3020:1 3051:1 3371:1 
202.7300921445614 0 10:1 99:1 164:1 312:1 356:1 520:1 962:1 998:1 1250:1 1307:1 1441:1 1505:1 1686:1 1796:1 2048:1 2433:1 2460:1 3509:1 
0 318.5439826569617 164:1 356:1 879:1 890:1 998:1 1163:1 1480:1 1934:1 2245:1 2460:1 
973.4231968967728 255.4607022232377 706:1 897:1 2208:1 2417:1 2571:1 
0 205.4328121719696 312:1 878:1 1244:1 1307:1 1325:1 1327:1 1340:1 1423:1 1466:1 1467:1 1649:1 2017:1 2095:1 2200:1 2324:1 2409:1 2456:1 2548:1 2551:1 2758:1 2889:1 2975:1 3051:1 3174:1 3278:1 3362:1 3428:1 3481:1 3635:1 
0 28.36922713852222 23:1 312:1 356:1 893:1 1217:1 1221:1 1275:1 1307:1 1480:1 1788:1 1869:1 1895:1 2460:1 2617:1 2767:1 3020:1 3051:1 3362:1 3433:1 3542:1 3640:1 
125.6044482379169 0 7:1 99:1 312:1 1322:1 1327:1 1686:1 2245:1 2332:1 2412:1 2519:1 2652:1 2712:1 2889:1 3247:1 3382:1 
0 141.3807480166595 414:1 1059:1 1263:1 1779:1 1784:1 2747:1 2977:1 
169.0024196689153 318.5439826569617 1059:1 1740:1 
214.5411943997645 94.91366065157378 192:1 623:1 1092:1 1111:1 2664:1 3445:1 
137.516682684798 0 196:1 1752:1 2238:1 3415:1 
523.0662916100085 0 2090:1 
157.4527547617193 144.2450877705508 517:1 732:1 2630:1 2982:1 3020:1 
174.0260869438387 318.5439826569617 399:1 696:1 732:1 1162:1 1613:1 1701:1 1866:1 2167:1 2828:1 2954:1 3445:1 
393.5515230386293 0 1481:1 1697:1 3565:1 
0 185.1110939497165 111:1 172:1 463:1 726:1 881:1 1175:1 1250:1 2112:1 2548:1 2795:1 2942:1 3020:1 3371:1 3575:1 
213.1761826389356 181.7108326419562 164:1 248:1 337:1 639:1 876:1 1917:1 2245:1 2409:1 2552:1 2594:1 3393:1 3575:1 
0 318.5439826569617 1596:1 2112:1 3371:1 3481:1 3575:1 
1108.733748687889 0 2172:1 
0 179.5742965198602 250:1 312:1 384:1 639:1 890:1 1084:1 1163:1 1327:1 1480:1 1726:1 1919:1 2297:1 2409:1 2986:1 3020:1 3031:1 3077:1 3108:1 3247:1 3351:1 
170.2889006683765 318.5439826569617 226:1 1961:1 2859:1 3253:1 3570:1 
896.1558785315012 0 927:1 1685:1 2208:1 2982:1 3375:1 3441:1 
1108.733748687889 287.0736656654277 931:1 1000:1 2208:1 2245:1 
345.7628526171532 318.5439826569617 80:1 1163:1 1175:1 1358:1 1669:1 2242:1 2879:1 3123:1 3320:1 3358:1 
61.78364557843624 80.17788821682927 506:1 543:1 733:1 830:1 1100:1 1163:1 1340:1 1480:1 1570:1 1714:1 1858:1 2070:1 2082:1 2383:1 2397:1 2414:1 2716:1 2831:1 2847:1 
197.7941495862696 118.6017003814805 734:1 1725:1 2015:1 3290:1 3474:1 
746.9349445032038 0 732:1 
1108.733748687889 318.5439826569617 732:1 2409:1 3635:1 
220.2177411246742 0 732:1 939:1 1199:1 1327:1 1907:1 2173:1 2245:1 2409:1 2594:1 2710:1 
263.9828418329135 56.6426088200539 1730:1 2387:1 
0 120.6431485540066 380:1 593:1 1041:1 1725:1 2237:1 2289:1 2487:1 2756:1 2839:1 3020:1 3120:1 
378.5367356840164 60.53513098875639 452:1 712:1 842:1 1199:1 1365:1 1838:1 2048:1 2245:1 2786:1 3293:1 
617.3461017072304 239.6461403118496 1174:1 1317:1 
763.1515640430971 318.5439826569617 285:1 1163:1 3605:1 
0 127.5647782744505 890:1 906:1 960:1 1163:1 2159:1 2625:1 2842:1 2942:1 3020:1 3187:1 3216:1 3554:1 3605:1 
0 318.5439826569617 463:1 1242:1 1396:1 1424:1 1546:1 2357:1 2447:1 2665:1 2683:1 3094:1 3355:1 
232.7577156066178 0 1180:1 1556:1 1726:1 2265:1 2982:1 
105.0274218660533 0 2:1 363:1 690:1 726:1 1335:1 1788:1 1876:1 2494:1 3094:1 3185:1 3587:1 3614:1 
498.5659442633087 0 96:1 498:1 1111:1 1808:1 2204:1 3440:1 
503.2607207916374 151.0515707687555 2:1 672:1 3151:1 
111.0418262972271 0 300:1 327:1 509:1 1372:1 1726:1 2750:1 3051:1 
1108.733748687889 89.64660635799524 915:1 1263:1 1305:1 2669:1 3308:1 
173.1392552528628 0 941:1 1239:1 1417:1 
171.0469789511369 108.8672494394993 328:1 639:1 907:1 1312:1 1739:1 2007:1 2986:1 3010:1 3051:1 3407:1 
819.951919813019 156.358934725818 96:1 523:1 901:1 1074:1 2485:1 2646:1 2669:1 
91.5685325946182 0 391:1 459:1 509:1 515:1 1049:1 1298:1 1340:1 1759:1 1783:1 2095:1 2161:1 2594:1 2954:1 2960:1 3110:1 3170:1 3204:1 3412:1 
1108.733748687889 318.5439826569617 2571:1 
1108.733748687889 318.5439826569617 2571:1 
1108.733748687889 318.5439826569617 2571:1 
1108.733748687889 0 500:1 
1108.733748687889 0 3351:1 
1108.733748687889 0 3351:1 
1108.733748687889 0 3351:1 
1108.733748687889 0 968:1 1454:1 1508:1 2903:1 
1108.733748687889 0 968:1 1454:1 1508:1 2903:1 
1108.733748687889 221.9075566531126 968:1 1454:1 1508:1 2903:1 
727.1243063430256 48.23912587502383 830:1 1249:1 1480:1 1587:1 1956:1 2831:1 3621:1 
215.8887294039027 225.5083056331883 114:1 712:1 896:1 1111:1 1123:1 1162:1 1569:1 1740:1 2923:1 2977:1 3006:1 3350:1 3604:1 
0 318.5439826569617 1336:1 1929:1 
250.9553534720182 318.5439826569617 829:1 832:1 1336:1 1929:1 2248:1 3020:1 
1108.733748687889 0 3294:1 
0 318.5439826569617 463:1 663:1 944:1 1715:1 2306:1 2665:1 2748:1 2799:1 2969:1 
0 318.5439826569617 209:1 402:1 628:1 1585:1 2748:1 2799:1 2899:1 
0 160.9474955907905 328:1 843:1 963:1 998:1 1336:1 1452:1 1929:1 2831:1 3027:1 
0 318.5439826569617 328:1 843:1 963:1 998:1 1336:1 1452:1 1929:1 2831:1 3027:1 
1108.733748687889 268.8808128380567 593:1 966:1 1508:1 2903:1 3516:1 
93.50011725382015 318.5439826569617 386:1 1489:1 1788:1 1923:1 2242:1 3094:1 3355:1 3404:1 
0 318.5439826569617 80:1 378:1 463:1 744:1 2665:1 3020:1 3616:1 
0 295.8582900284294 463:1 540:1 726:1 998:1 1076:1 1306:1 1670:1 2200:1 2665:1 3020:1 3287:1 3320:1 3371:1 
0 318.5439826569617 2:1 463:1 593:1 944:1 1715:1 2028:1 2665:1 3020:1 3172:1 3320:1 
0 318.5439826569617 463:1 944:1 1623:1 1715:1 2587:1 2665:1 2735:1 
0 318.5439826569617 463:1 920:1 944:1 1068:1 1076:1 1715:1 1965:1 2665:1 2893:1 3371:1 
-707.6812375469705 160.000575358405 37:1 1000:1 1040:1 2245:1 2912:1 3007:1 3367:1 
-1108.733748687889 91.63737861797034 732:1 3581:1 3635:1 
-1108.733748687889 0 732:1 1508:1 2047:1 3614:1 3635:1 
-1108.733748687889 334.9106125374278 1203:1 1344:1 2344:1 2758:1 2866:1 3020:1 3158:1 
-1108.733748687889 634.1152015007369 3351:1 
-0 135.6819655643212 356:1 473:1 518:1 593:1 1009:1 1776:1 2208:1 2594:1 2669:1 3020:1 3043:1 3372:1 
-366.3478916395894 0 1244:1 1307:1 1508:1 2200:1 2758:1 2888:1 3094:1 3512:1 3614:1 
-1108.733748687889 473.0680133381147 1100:1 1597:1 2409:1 2571:1 3371:1 
-711.6117117269637 261.1639805202589 398:1 407:1 784:1 1167:1 1307:1 1796:1 1921:1 2903:1 2990:1 3020:1 3509:1 
-11.49521465653507 47.20464261990301 16:1 22:1 118:1 163:1 312:1 327:1 329:1 374:1 407:1 468:1 512:1 593:1 732:1 855:1 875:1 960:1 962:1 986:1 1232:1 1250:1 1307:1 1323:1 1335:1 1432:1 1460:1 1606:1 1673:1 1686:1 1714:1 1761:1 1782:1 1788:1 1890:1 1907:1 2002:1 2214:1 2245:1 2305:1 2311:1 2324:1 2530:1 2674:1 2683:1 2689:1 2758:1 2831:1 2836:1 2899:1 2942:1 2990:1 2996:1 3020:1 3044:1 3051:1 3077:1 3094:1 3117:1 3177:1 3213:1 3247:1 3297:1 3371:1 3372:1 3509:1 3512:1 3575:1 3607:1 
-493.0493633072388 251.6716051666464 53:1 142:1 179:1 341:1 821:1 878:1 1776:1 2641:1 2669:1 2831:1 
-287.626204992373 33.39227117605778 153:1 327:1 509:1 639:1 1120:1 1244:1 1250:1 1312:1 1327:1 1955:1 2026:1 2208:1 2517:1 2711:1 2897:1 3077:1 3351:1 3382:1 
-1108.733748687889 282.6680772246253 153:1 834:1 1315:1 2245:1 2711:1 2986:1 3031:1 3449:1 
-449.7496441361955 111.1366648771234 15:1 474:1 835:1 2358:1 3274:1 3310:1 
-378.6848164335672 0 167:1 300:1 498:1 591:1 1307:1 1508:1 1686:1 2159:1 2200:1 2208:1 2245:1 2311:1 2553:1 2982:1 3023:1 3030:1 3158:1 3297:1 3302:1 3371:1 3512:1 
-0 195.5149324425463 5:1 2047:1 
-1108.733748687889 234.4526011339922 712:1 872:1 1175:1 1335:1 2754:1 3020:1 3605:1 
-1108.733748687889 453.420089965841 872:1 
-1108.733748687889 0 647:1 712:1 872:1 2754:1 2861:1 
-98.62321249761719 0 68:1 326:1 447:1 618:1 656:1 704:1 712:1 717:1 872:1 1253:1 1264:1 1290:1 1293:1 1618:1 1677:1 1702:1 1734:1 1742:1 1805:1 1902:1 2090:1 2316:1 2370:1 2375:1 2384:1 2526:1 2627:1 3034:1 3417:1 3425:1 3510:1 3587:1 
-141.0969788661464 0 647:1 712:1 872:1 2754:1 
-891.048531354805 198.5000054993385 1175:1 1199:1 1244:1 1734:1 1735:1 1909:1 2136:1 2462:1 2758:1 3020:1 3597:1 
-96.27675012056059 102.8292388244373 270:1 312:1 350:1 639:1 647:1 890:1 1175:1 1210:1 1220:1 1250:1 1307:1 1533:1 1609:1 1676:1 1885:1 1954:1 1977:1 2093:1 2208:1 2526:1 2571:1 2861:1 2878:1 2893:1 2900:1 3051:1 3158:1 3171:1 3245:1 3302:1 3362:1 3509:1 
-599.768783989163 357.7175109041149 712:1 1091:1 2758:1 2831:1 2841:1 3020:1 3560:1 
-0 166.7777102240989 277:1 712:1 1074:1 1091:1 1260:1 1902:1 2704:1 2954:1 3546:1 
-216.5969112983794 41.87753454826777 101:1 164:1 249:1 300:1 312:1 440:1 463:1 726:1 779:1 834:1 1163:1 1508:1 1734:1 1788:1 1909:1 1960:1 2136:1 2324:1 2489:1 2877:1 3147:1 3177:1 3198:1 3210:1 3371:1 3504:1 3614:1 3621:1 
-264.4754923605399 150.9327171443557 142:1 563:1 593:1 832:1 1174:1 1490:1 1594:1 1846:1 2139:1 2415:1 2654:1 2915:1 2964:1 
-1108.733748687889 0 96:1 832:1 921:1 1490:1 2669:1 3341:1 
-508.8711318998808 352.2546978061159 164:1 639:1 640:1 998:1 1175:1 1191:1 1222:1 1275:1 1386:1 2385:1 2409:1 2446:1 2548:1 3020:1 3194:1 3371:1 3616:1 
-10.5671843264852 136.2325328621523 167:1 312:1 345:1 356:1 593:1 900:1 911:1 918:1 934:1 960:1 992:1 1077:1 1307:1 1324:1 1336:1 1417:1 1869:1 2265:1 2289:1 2324:1 2456:1 2554:1 2594:1 2799:1 2813:1 2831:1 2876:1 2903:1 3051:1 3071:1 3087:1 3355:1 3388:1 3545:1 
-48.0033993131308 18.41558541232936 37:1 48:1 283:1 300:1 312:1 314:1 375:1 432:1 570:1 966:1 1073:1 1163:1 1256:1 1275:1 1441:1 1533:1 1560:1 1676:1 1965:1 2089:1 2161:1 2164:1 2214:1 2324:1 2445:1 3020:1 3024:1 3027:1 3030:1 3158:1 3180:1 3278:1 3315:1 3371:1 3409:1 3481:1 3512:1 3535:1 3614:1 
-571.7577405921885 203.0362990009472 198:1 268:1 384:1 442:1 520:1 547:1 593:1 988:1 1405:1 1782:1 1788:1 1895:1 1901:1 1929:1 2267:1 2409:1 2665:1 2817:1 2903:1 2982:1 2986:1 3020:1 3046:1 3051:1 3158:1 3514:1 3545:1 3635:1 
-595.5705452974486 246.8521041242902 228:1 381:1 859:1 1126:1 1546:1 2200:1 2511:1 2878:1 3020:1 3083:1 3120:1 3302:1 
-724.5404597499086 44.88834603202002 357:1 1175:1 1191:1 1726:1 1894:1 2014:1 2245:1 3046:1 3322:1 3371:1 3445:1 
-262.7700235784703 70.48409264352556 18:1 23:1 37:1 245:1 250:1 300:1 312:1 356:1 362:1 406:1 639:1 825:1 829:1 830:1 834:1 839:1 885:1 1040:1 1247:1 1323:1 1480:1 1508:1 1546:1 1597:1 1609:1 1869:1 1933:1 2113:1 2159:1 2208:1 2214:1 2534:1 2600:1 2680:1 2830:1 2831:1 2888:1 2934:1 2978:1 3016:1 3020:1 3306:1 3371:1 3386:1 3476:1 3481:1 
-328.1959577112835 123.7473479521744 367:1 821:1 896:1 901:1 1116:1 2204:1 2669:1 2954:1 3126:1 3143:1 3445:1 3532:1 3633:1 
-345.1684558721748 193.3592779431771 300:1 383:1 972:1 988:1 1048:1 1074:1 1961:1 2159:1 2245:1 2391:1 2454:1 2665:1 2809:1 2903:1 2981:1 3046:1 3325:1 3371:1 3520:1 
-271.3441174924056 202.5924286680126 327:1 593:1 830:1 998:1 1137:1 1307:1 1358:1 1686:1 2245:1 2454:1 2557:1 2686:1 2831:1 2878:1 3007:1 3367:1 3371:1 3619:1 
-131.9496151347317 0 37:1 208:1 432:1 966:1 1275:1 1654:1 2385:1 3625:1 
-899.2317026922118 73.21152151946328 37:1 287:1 968:1 1163:1 1249:1 1788:1 2007:1 3433:1 
-89.76749142752463 59.93318448579721 408:1 593:1 1776:1 1819:1 2145:1 2349:1 2903:1 2919:1 
-438.3135930386387 65.26476495101383 136:1 300:1 391:1 535:1 726:1 864:1 1345:1 1354:1 1688:1 1752:1 2377:1 2616:1 2786:1 3054:1 
-1108.733748687889 128.6798588291992 1299:1 1904:1 2535:1 3553:1 
-136.7548152505159 0 327:1 366:1 1382:1 1776:1 1901:1 2310:1 2409:1 2412:1 2502:1 2520:1 2535:1 2557:1 2697:1 2817:1 2982:1 3512:1 3523:1 3614:1 
-65.81300368885863 49.06534932432896 37:1 168:1 308:1 356:1 361:1 366:1 406:1 407:1 466:1 472:1 488:1 578:1 593:1 706:1 726:1 779:1 830:1 834:1 855:1 905:1 919:1 962:1 1084:1 1138:1 1163:1 1175:1 1244:1 1250:1 1275:1 1291:1 1307:1 1327:1 1335:1 1340:1 1344:1 1381:1 1423:1 1456:1 1596:1 1597:1 1649:1 1686:1 1708:1 1726:1 1776:1 1827:1 1867:1 1898:1 1914:1 2208:1 2226:1 2311:1 2409:1 2434:1 2466:1 2531:1 2594:1 2595:1 2674:1 2758:1 2786:1 2817:1 2831:1 2893:1 2934:1 3020:1 3051:1 3066:1 3077:1 3086:1 3094:1 3117:1 3120:1 3278:1 3371:1 3432:1 3433:1 3439:1 3445:1 3575:1 
-1108.733748687889 433.0984419301458 1406:1 2208:1 2593:1 3605:1 
-616.6450814540901 0 2:1 498:1 593:1 1526:1 2248:1 2409:1 3020:1 3106:1 3509:1 3512:1 3605:1 
-373.4680666405956 62.09585538915837 2:1 300:1 379:1 774:1 1250:1 1382:1 1954:1 2957:1 2979:1 2993:1 3020:1 3320:1 
-112.3751575633979 0 2:1 219:1 251:1 312:1 498:1 509:1 528:1 593:1 608:1 639:1 672:1 698:1 726:1 864:1 932:1 1057:1 1175:1 1250:1 1262:1 1327:1 1392:1 1417:1 1450:1 1469:1 1508:1 1525:1 1596:1 1649:1 1693:1 1726:1 1783:1 1788:1 1796:1 1874:1 1954:1 1962:1 2081:1 2217:1 2245:1 2324:1 2436:1 2460:1 2545:1 2605:1 2614:1 2674:1 2697:1 2754:1 2831:1 2904:1 3020:1 3039:1 3177:1 3266:1 3298:1 3320:1 3433:1 3512:1 3607:1 3614:1 3619:1 3638:1 
-1108.733748687889 439.570014626054 217:1 698:1 875:1 1018:1 1480:1 1890:1 
-61.03945581141082 54.54447589601335 236:1 250:1 312:1 356:1 473:1 639:1 775:1 834:1 890:1 1009:1 1163:1 1191:1 1199:1 1244:1 1250:1 1275:1 1307:1 1344:1 1363:1 1417:1 1480:1 1513:1 1546:1 1676:1 1788:1 1901:1 2081:1 2201:1 2214:1 2332:1 2571:1 2674:1 2683:1 2758:1 2877:1 2966:1 3020:1 3077:1 3147:1 3352:1 3433:1 3509:1 3512:1 3575:1 
-1108.733748687889 142.6552084581677 37:1 252:1 968:1 1672:1 2879:1 2903:1 3153:1 
-38.37883314881413 40.35694605401136 300:1 555:1 664:1 753:1 834:1 1096:1 1125:1 1163:1 1244:1 1287:1 1320:1 1403:1 1464:1 1649:1 1657:1 1737:1 1796:1 1827:1 2007:1 2081:1 2110:1 2385:1 2397:1 2471:1 2603:1 2636:1 2648:1 2803:1 2866:1 2889:1 2893:1 2982:1 3020:1 3126:1 3225:1 3289:1 3297:1 3306:1 3433:1 
-1108.733748687889 512.5046083123058 578:1 
-278.2033438275171 66.65788700178885 15:1 295:1 312:1 1206:1 1266:1 1335:1 1340:1 1596:1 1776:1 1819:1 1830:1 1937:1 2179:1 2349:1 2512:1 2739:1 2825:1 2864:1 2928:1 3370:1 3398:1 3445:1 
-756.7307479656041 413.9006537755168 1083:1 2571:1 3512:1 
-1108.733748687889 0 451:1 1007:1 2571:1 3512:1 
-1108.733748687889 212.5699137870381 1244:1 1620:1 2412:1 3366:1 
-1108.733748687889 0 1083:1 1901:1 2048:1 2982:1 3512:1 
-1108.733748687889 171.307146739368 206:1 1160:1 1721:1 2014:1 3355:1 
-0 91.79929447020638 37:1 268:1 356:1 632:1 834:1 990:1 1075:1 1163:1 1244:1 1275:1 1442:1 1480:1 1508:1 1754:1 1776:1 1934:1 2385:1 2508:1 2674:1 3355:1 3371:1 3433:1 3586:1 
-292.7571226761953 219.8338168768866 138:1 457:1 507:1 517:1 593:1 2888:1 3353:1 3570:1 
-796.9102103371355 161.3292154071862 1102:1 1191:1 1546:1 1560:1 2214:1 2324:1 2874:1 3289:1 
-285.492966627073 0 208:1 420:1 539:1 1256:1 3445:1 
-571.4785577457179 0 138:1 1111:1 1741:1 2775:1 
-655.3570672453313 298.8430531116812 347:1 1074:1 1109:1 1741:1 2998:1 
-207.412840219607 77.75329263133932 23:1 208:1 308:1 312:1 386:1 591:1 787:1 930:1 944:1 1160:1 1175:1 1244:1 1288:1 1307:1 1312:1 1450:1 1574:1 1599:1 1695:1 1714:1 1782:1 1858:1 1869:1 2007:1 2014:1 2081:1 2159:1 2161:1 2208:1 2214:1 2283:1 2665:1 2746:1 2762:1 2990:1 3020:1 3077:1 3355:1 3371:1 3512:1 3605:1 
-339.7550451080223 138.8674295414012 553:1 593:1 1388:1 1481:1 1783:1 2373:1 2846:1 3009:1 3051:1 3159:1 3420:1 
-75.17629846282098 56.90638501139348 15:1 55:1 136:1 295:1 303:1 391:1 700:1 726:1 819:1 884:1 1144:1 1163:1 1193:1 1340:1 1344:1 1666:1 1802:1 1814:1 1943:1 1971:1 2024:1 2031:1 2032:1 2201:1 2228:1 2230:1 2294:1 2540:1 2590:1 2710:1 2744:1 2834:1 2863:1 2928:1 3019:1 3110:1 3403:1 3482:1 3515:1 
-854.9070398413056 57.83967700227554 312:1 457:1 607:1 834:1 1244:1 1499:1 1648:1 1713:1 2214:1 2458:1 2674:1 3077:1 3445:1 
-849.2019244370789 634.1152015007369 639:1 1163:1 1368:1 3581:1 
-1108.733748687889 0 732:1 3470:1 3512:1 3635:1 
-1108.733748687889 0 184:1 236:1 593:1 1392:1 1546:1 2091:1 2208:1 3512:1 
-30.88629892350946 65.31593253649847 208:1 220:1 233:1 245:1 312:1 442:1 530:1 531:1 665:1 734:1 979:1 998:1 1028:1 1041:1 1436:1 1465:1 1515:1 1772:1 1856:1 1900:1 1982:1 1990:1 2047:1 2207:1 2253:1 2273:1 2437:1 2546:1 2561:1 2568:1 2591:1 2620:1 2624:1 2683:1 2706:1 2709:1 2785:1 2799:1 2831:1 2903:1 
-1108.733748687889 0 442:1 1307:1 1785:1 1901:1 2245:1 2894:1 2934:1 3445:1 3490:1 3512:1 3580:1 
-646.3986604345623 108.9276216279381 732:1 1741:1 3124:1 3539:1 
-1108.733748687889 49.78986483233213 1382:1 2982:1 3165:1 
-129.4099111580589 76.21196229587409 173:1 624:1 1179:1 1741:1 1765:1 2166:1 2980:1 
-116.3930972090775 104.1107166103207 408:1 593:1 1173:1 1518:1 2349:1 2563:1 3154:1 
-1108.733748687889 634.1152015007369 208:1 732:1 2571:1 
-941.4171342654564 0 23:1 336:1 830:1 1546:1 2208:1 2408:1 3512:1 
-631.438179577095 129.225391160967 442:1 909:1 1655:1 1776:1 1989:1 2172:1 2193:1 2391:1 2828:1 2883:1 3166:1 3311:1 
-241.7121701174961 0 72:1 300:1 338:1 356:1 457:1 458:1 557:1 566:1 674:1 692:1 811:1 822:1 960:1 966:1 1275:1 1581:1 1788:1 1792:1 2161:1 2213:1 2265:1 2821:1 2986:1 3014:1 3104:1 3306:1 3526:1 
-1108.733748687889 0 345:1 639:1 2245:1 3433:1 
-0 50.5191643960999 99:1 327:1 442:1 451:1 1489:1 1533:1 1685:1 1894:1 2014:1 2571:1 2758:1 2986:1 3077:1 3123:1 3228:1 3371:1 3512:1 
-822.5761730629783 164.1921910368954 506:1 663:1 1781:1 2432:1 2831:1 3315:1 
-460.9955417571396 55.71441585291512 37:1 144:1 842:1 916:1 1133:1 1714:1 1788:1 2535:1 3234:1 
-248.1323574938564 0 37:1 72:1 366:1 499:1 662:1 741:1 908:1 1199:1 1335:1 1344:1 1358:1 1757:1 1792:1 2208:1 2214:1 2256:1 2758:1 2888:1 3367:1 3580:1 3597:1 
-1108.733748687889 0 698:1 706:1 842:1 1454:1 2208:1 2229:1 
-1108.733748687889 125.4655278841524 258:1 962:1 1508:1 1934:1 2903:1 
-1108.733748687889 634.1152015007369 732:1 3360:1 
-1108.733748687889 0 3360:1 
-0 223.1561421653807 2047:1 2391:1 2562:1 2571:1 
-1108.733748687889 0 3586:1 
-824.7602359703749 156.2126953603423 5:1 571:1 890:1 1007:1 1175:1 1312:1 1686:1 2737:1 3251:1 
-323.6464807517406 0 460:1 593:1 701:1 822:1 1051:1 1614:1 2409:1 3219:1 
-1108.733748687889 0 5:1 1685:1 
-1108.733748687889 183.4494639998864 1685:1 2017:1 3614:1 
-121.3405970730863 0 72:1 305:1 336:1 420:1 639:1 732:1 782:1 834:1 920:1 1007:1 1196:1 1244:1 1287:1 1327:1 1329:1 1335:1 1418:1 1480:1 1710:1 1726:1 1757:1 1785:1 1890:1 1954:1 2007:1 2200:1 2409:1 2530:1 2535:1 2594:1 2758:1 2817:1 2831:1 2970:1 3051:1 3077:1 3166:1 3213:1 3223:1 3512:1 3614:1 3635:1 
-680.0327607137591 39.15671815896126 99:1 300:1 706:1 733:1 890:1 960:1 995:1 1085:1 1250:1 1307:1 1382:1 1726:1 1800:1 1923:1 2081:1 2324:1 2391:1 2496:1 2535:1 2831:1 2877:1 3020:1 3123:1 3180:1 3512:1 3583:1 3614:1 
-20.50745094522772 28.42846617886708 37:1 153:1 167:1 206:1 674:1 990:1 1040:1 1084:1 1203:1 1272:1 1307:1 1310:1 1320:1 1377:1 1713:1 2007:1 2017:1 2208:1 2245:1 2324:1 2456:1 2594:1 2754:1 2758:1 2814:1 2875:1 2986:1 3033:1 3094:1 3104:1 3123:1 3304:1 3504:1 
-781.7354724346123 169.1321732482993 834:1 1766:1 2367:1 3614:1 
-275.9107191831797 99.46861643496997 2:1 78:1 164:1 251:1 312:1 472:1 567:1 639:1 706:1 732:1 779:1 834:1 900:1 918:1 962:1 1244:1 1250:1 1597:1 1673:1 1701:1 1714:1 1785:1 1866:1 1923:1 2002:1 2081:1 2159:1 2245:1 2297:1 2324:1 2409:1 2758:1 3020:1 3077:1 3118:1 3123:1 3177:1 3367:1 3371:1 3445:1 3623:1 3631:1 3638:1 
-600.6390210962631 0 593:1 1092:1 1417:1 1508:1 1655:1 1735:1 2903:1 3104:1 3289:1 3371:1 
-405.1161880050026 0 37:1 72:1 99:1 217:1 457:1 610:1 746:1 1258:1 1776:1 2027:1 2208:1 2339:1 2487:1 2586:1 2632:1 2903:1 3371:1 3433:1 3481:1 
-167.3166144224327 0 206:1 2367:1 2487:1 3614:1 
-178.156054101935 0 153:1 698:1 1287:1 1874:1 2446:1 2530:1 2571:1 3512:1 
-460.6674885454348 0 237:1 250:1 312:1 327:1 472:1 488:1 639:1 691:1 883:1 1137:1 1175:1 1307:1 1773:1 1788:1 1800:1 2007:1 2208:1 2385:1 2674:1 2751:1 2754:1 3020:1 3031:1 3051:1 3214:1 3371:1 3404:1 3521:1 
-571.6106488536064 0 1325:1 1698:1 2047:1 2262:1 2888:1 3614:1 
-1108.733748687889 0 3351:1 
-1108.733748687889 136.8776867778183 33:1 668:1 1040:1 1864:1 2187:1 3571:1 
-1108.733748687889 77.47875605450562 901:1 
-788.3749682291802 190.8971225233516 312:1 538:1 1377:1 1508:1 1668:1 1869:1 2541:1 3076:1 3094:1 3117:1 3158:1 
-193.0842331036099 148.3638988344883 65:1 84:1 99:1 142:1 145:1 174:1 292:1 560:1 619:1 703:1 712:1 727:1 736:1 841:1 901:1 921:1 1022:1 1078:1 1459:1 1487:1 1701:1 2371:1 2549:1 2669:1 2708:1 2747:1 2831:1 3293:1 3350:1 3353:1 3362:1 3419:1 3461:1 3495:1 3540:1 
-0 314.4508965854637 37:1 250:1 356:1 463:1 1163:1 1244:1 1874:1 2007:1 2503:1 2530:1 2665:1 3512:1 3545:1 3614:1 3640:1 
-313.7322882322409 0 1091:1 
-1108.733748687889 0 500:1 
-1108.733748687889 0 3351:1 
-1108.733748687889 588.2906229462353 1019:1 
-0 62.28913463470272 500:1 736:1 1162:1 1174:1 1806:1 2664:1 
-481.5701288684327 87.2645265252678 37:1 316:1 736:1 1307:1 1669:1 2208:1 2511:1 2704:1 2772:1 
-1108.733748687889 157.2874432983283 548:1 1249:1 1572:1 1788:1 1799:1 2889:1 2982:1 3051:1 3439:1 3638:1 
-1108.733748687889 0 312:1 682:1 893:1 932:1 2617:1 3158:1 
-278.6241801781845 53.54063075086165 1111:1 1410:1 1582:1 3294:1 
-740.9051110925517 0 250:1 356:1 549:1 732:1 875:1 2332:1 2717:1 2758:1 2866:1 2889:1 
-683.903793049624 265.8023239634276 367:1 450:1 2480:1 3122:1 3231:1 3546:1 
-690.8806794562009 414.9730102146263 1074:1 1111:1 1162:1 1174:1 1263:1 2831:1 3419:1 
-886.4497856043432 0 745:1 890:1 962:1 1040:1 2324:1 2409:1 2982:1 3031:1 3225:1 3512:1 
-982.4483533131446 25.09940436309553 316:1 732:1 872:1 893:1 1726:1 1785:1 2007:1 2245:1 2456:1 2511:1 2571:1 3051:1 3638:1 
-0 187.6780185308995 205:1 345:1 639:1 1307:1 1327:1 1508:1 1785:1 1788:1 2332:1 2866:1 2889:1 2903:1 3445:1 
-1042.128475412219 0 732:1 893:1 932:1 1237:1 1307:1 1788:1 1934:1 2245:1 2385:1 2423:1 2594:1 2617:1 2831:1 
-115.1225035605889 29.80803378974529 30:1 70:1 162:1 377:1 391:1 502:1 746:1 854:1 1032:1 1215:1 1228:1 1345:1 1598:1 1937:1 2022:1 2297:1 2358:1 2553:1 2594:1 2660:1 2702:1 2754:1 2845:1 2928:1 2947:1 3015:1 3233:1 3454:1 3467:1 3513:1 3584:1 
-1108.733748687889 0 3351:1 
-901.3209084682821 198.8335348137257 40:1 1058:1 2960:1 
-0 107.4193607537652 167:1 208:1 250:1 268:1 312:1 530:1 639:1 747:1 923:1 998:1 1307:1 1377:1 1533:1 1781:1 1785:1 2245:1 2598:1 2758:1 2903:1 3004:1 3011:1 3051:1 3091:1 3094:1 3137:1 3362:1 3445:1 
-294.1150679350049 253.5349221104062 53:1 99:1 138:1 504:1 878:1 1162:1 1317:1 2831:1 2875:1 2985:1 
-283.9735127175141 100.1072335899535 834:1 1528:1 1788:1 2082:1 2340:1 2594:1 3614:1 3638:1 
-41.35147889332595 41.53247708199182 31:1 142:1 262:1 504:1 593:1 764:1 859:1 878:1 1012:1 1079:1 1163:1 1208:1 1509:1 1563:1 1673:1 1694:1 1858:1 2004:1 2050:1 2455:1 2568:1 2664:1 2704:1 2786:1 2884:1 2931:1 2972:1 3029:1 3104:1 3282:1 3293:1 3308:1 3375:1 3508:1 3512:1 
-55.85467903745177 60.2600195501515 105:1 312:1 1111:1 1116:1 1133:1 1221:1 1741:1 1776:1 2254:1 2332:1 2409:1 2456:1 2704:1 2956:1 3189:1 3293:1 
-626.5956243036339 0 593:1 657:1 878:1 921:1 1305:1 2201:1 2669:1 
-0 92.77998695385293 142:1 335:1 367:1 593:1 878:1 901:1 921:1 1174:1 1272:1 1631:1 2240:1 2551:1 2669:1 3036:1 3186:1 3275:1 3293:1 3362:1 
-113.6216363345353 196.2664676677647 593:1 901:1 1074:1 2048:1 2551:1 2669:1 
-0 93.49347414925968 191:1 194:1 454:1 593:1 1287:1 1641:1 2704:1 2831:1 3294:1 3546:1 
-492.6626949045136 45.92456616812019 201:1 756:1 1091:1 1466:1 1543:1 1623:1 1805:1 
-473.7322202958773 171.4645262675351 875:1 950:1 1246:1 2064:1 2691:1 2812:1 3371:1 3433:1 
-209.4508333288117 144.8188860126597 138:1 199:1 277:1 504:1 535:1 878:1 1162:1 1557:1 2203:1 2433:1 2664:1 2802:1 2831:1 2887:1 2976:1 
-57.01142091478165 186.2330334343914 2:1 208:1 300:1 726:1 998:1 1040:1 1508:1 1642:1 1707:1 1820:1 1858:1 2525:1 2665:1 2964:1 
-0 55.49630803849011 163:1 244:1 308:1 374:1 410:1 624:1 639:1 684:1 710:1 780:1 825:1 879:1 883:1 966:1 1136:1 1275:1 1347:1 1481:1 1508:1 1776:1 1827:1 1846:1 1858:1 1965:1 2245:1 2426:1 2530:1 2539:1 2686:1 2785:1 2818:1 2888:1 2970:1 2993:1 3027:1 3367:1 
-279.4407752940891 0 1307:1 1329:1 2762:1 3094:1 3512:1 3580:1 3614:1 
-1108.733748687889 0 1493:1 
-1108.733748687889 469.4066113684493 1454:1 
-1108.733748687889 173.044235131764 1454:1 2811:1 
-1108.733748687889 0 3623:1 
-1108.733748687889 0 1091:1 
-1044.6135861903 0 312:1 1249:1 
-469.7291930469909 0 3581:1 
-326.9982762532769 0 1746:1 
-1108.733748687889 0 1746:1 
-1108.733748687889 614.3331753065961 1746:1 
-384.4065143500483 0 3105:1 
-1108.733748687889 0 3105:1 
-1108.733748687889 565.5589276260339 3105:1 
-1108.733748687889 194.5451868746829 206:1 911:1 
-780.5377909766056 0 206:1 1952:1 
-1108.733748687889 0 4:1 
-1108.733748687889 162.4294235480565 457:1 746:1 
-257.748529548788 0 312:1 327:1 593:1 1203:1 3094:1 3263:1 3308:1 3438:1 
-1108.733748687889 0 3308:1 
-1108.733748687889 634.1152015007369 3308:1 
-1108.733748687889 634.1152015007369 2571:1 
-1108.733748687889 0 500:1 
-1108.733748687889 541.8595519862829 500:1 
-1108.733748687889 543.7485395698794 1952:1 
-1108.733748687889 569.1545122230473 2155:1 
-1108.733748687889 634.1152015007369 3488:1 
-1108.733748687889 0 3360:1 
-1108.733748687889 0 3294:1 
-1108.733748687889 398.6326095957416 3294:1 
-1108.733748687889 0 2144:1 
-1108.733748687889 0 3501:1 
-314.1043828821738 0 2084:1 
-1108.733748687889 0 2084:1 
-1108.733748687889 533.1741057948046 2084:1 
-1028.42478538963 0 1792:1 
-1108.733748687889 634.1152015007369 1792:1 
-1108.733748687889 0 39:1 
-1108.733748687889 583.1630200388269 39:1 
-1108.733748687889 588.8387019096416 3401:1 
-1108.733748687889 556.5810438342868 3623:1 
-1108.733748687889 475.0224848139425 3586:1 
-1108.733748687889 0 2285:1 
-1108.733748687889 634.1152015007369 2285:1 
-1108.733748687889 585.5659033867713 1115:1 
-1108.733748687889 522.9785366236135 1096:1 
-1108.733748687889 553.2934486997158 1689:1 
-1108.733748687889 612.2041360557573 3501:1 
-1108.733748687889 634.1152015007369 2144:1 
-1108.733748687889 533.4083061128882 1493:1 
-1108.733748687889 634.1152015007369 2571:1 2970:1 
-1108.733748687889 634.1152015007369 4:1 
-558.8625723393706 203.1296119456897 913:1 1244:1 1275:1 2443:1 3149:1 
-286.2944850452247 193.329393516803 96:1 504:1 593:1 921:1 1079:1 1111:1 1514:1 1556:1 1630:1 2139:1 2669:1 2879:1 2954:1 3478:1 
-1108.733748687889 142.6197465493819 283:1 312:1 918:1 3452:1 
-1102.040605321582 0 908:1 1508:1 1655:1 2208:1 
-1108.733748687889 104.8304846381579 593:1 1550:1 
-1108.733748687889 634.1152015007369 557:1 
-318.5439826569617 -95.98120119189416 1000:1 1057:1 1300:1 1405:1 1776:1 2665:1 3020:1 3159:1 3452:1 
-33.38737776157554 -80.62961773666876 47:1 268:1 488:1 1163:1 1442:1 1494:1 1792:1 2069:1 2214:1 2456:1 2598:1 2611:1 2625:1 2903:1 3083:1 3122:1 3302:1 3491:1 
-318.5439826569617 -277.7621638690973 399:1 696:1 732:1 1162:1 1613:1 1701:1 1866:1 2167:1 2828:1 2954:1 3445:1 
-267.7394873880963 -115.4662358803412 59:1 316:1 703:1 962:1 970:1 993:1 1089:1 1813:1 2409:1 2511:1 2576:1 3289:1 3297:1 3355:1 3583:1 3619:1 
-24.44807244323095 -0 2:1 45:1 80:1 163:1 221:1 338:1 830:1 859:1 1163:1 1325:1 1380:1 1676:1 1923:1 2385:1 2409:1 2553:1 2758:1 2785:1 2942:1 3020:1 3320:1 3499:1 3616:1 
-318.5439826569617 -0 399:1 696:1 732:1 1162:1 1613:1 1701:1 1866:1 2167:1 2828:1 2954:1 3445:1 
-0.6976451529040588 -0 163:1 168:1 1191:1 2214:1 2785:1 3020:1 3058:1 3077:1 
-178.5018061608199 -0 23:1 148:1 157:1 163:1 258:1 566:1 579:1 859:1 883:1 890:1 893:1 932:1 962:1 965:1 1167:1 1187:1 1297:1 1316:1 1340:1 1596:1 1686:1 1794:1 1800:1 2048:1 2055:1 2081:1 2159:1 2460:1 2617:1 2625:1 2689:1 2942:1 3020:1 3051:1 3247:1 3362:1 3371:1 3421:1 3476:1 3575:1 3576:1 3605:1 3629:1 3638:1 
-318.5439826569617 -634.1152015007369 168:1 512:1 890:1 2866:1 3122:1 
-138.7599698667155 -0 2:1 72:1 356:1 512:1 535:1 674:1 726:1 745:1 780:1 920:1 965:1 1134:1 1175:1 1298:1 1335:1 1423:1 1630:1 1858:1 1919:1 1965:1 1970:1 2028:1 2055:1 2082:1 2409:1 2456:1 2531:1 2593:1 2772:1 3020:1 3091:1 3122:1 3297:1 3320:1 3404:1 3409:1 3490:1 3616:1 
-318.5439826569617 -138.9941781617811 521:1 535:1 1327:1 3305:1 3353:1 
-318.5439826569617 -317.5336546897999 142:1 482:1 878:1 2889:1 3305:1 
-318.5439826569617 -0 356:1 526:1 890:1 919:1 1163:1 1480:1 1715:1 1934:1 2159:1 3225:1 
-318.5439826569617 -634.1152015007369 226:1 482:1 732:1 2831:1 2835:1 
-318.5439826569617 -83.57653824405207 99:1 463:1 526:1 879:1 1715:1 2665:1 
-143.6870087393526 -34.93493959399156 71:1 245:1 337:1 356:1 442:1 566:1 639:1 732:1 920:1 926:1 931:1 995:1 1478:1 1495:1 1726:1 1790:1 1794:1 1860:1 1866:1 1869:1 1876:1 1965:1 2169:1 2194:1 2245:1 2297:1 2407:1 2472:1 2758:1 2831:1 2894:1 3021:1 3094:1 3145:1 3174:1 3319:1 3362:1 3367:1 3484:1 3580:1 
-318.5439826569617 -200.8293962607208 890:1 1175:1 1377:1 3051:1 3188:1 3218:1 3291:1 3305:1 
-318.5439826569617 -0 23:1 164:1 386:1 526:1 732:1 746:1 890:1 893:1 1275:1 2297:1 2409:1 3020:1 3305:1 3371:1 3445:1 
-205.0261271080337 -0 163:1 832:1 879:1 920:1 1080:1 1336:1 1925:1 1965:1 2385:1 3020:1 3042:1 3094:1 3289:1 3311:1 3371:1 3462:1 
-318.5439826569617 -117.2614945383826 48:1 463:1 526:1 1753:1 1965:1 2017:1 2245:1 2409:1 2665:1 3020:1 3051:1 3371:1 
-133.7394331648059 -305.3720044878514 180:1 226:1 712:1 732:1 1328:1 2048:1 2664:1 3419:1 
-175.5119884140995 -87.01022006118363 96:1 163:1 356:1 639:1 783:1 799:1 834:1 856:1 1244:1 1533:1 1572:1 1573:1 1726:1 1785:1 1788:1 2456:1 2758:1 2831:1 3122:1 3174:1 3292:1 3439:1 3564:1 3614:1 
-275.9878778048871 -79.25157565685564 2:1 222:1 250:1 442:1 520:1 672:1 732:1 834:1 859:1 1163:1 1327:1 2017:1 2082:1 2182:1 2265:1 2409:1 3020:1 3051:1 3335:1 3371:1 
-72.38461968944509 -29.20181281869887 17:1 142:1 368:1 693:1 726:1 837:1 878:1 1298:1 1317:1 1445:1 1458:1 2476:1 2704:1 2875:1 3079:1 3133:1 3293:1 3353:1 3389:1 3420:1 
-295.0231950809452 -117.1245250825333 111:1 908:1 1258:1 1307:1 1648:1 1917:1 1923:1 2243:1 2245:1 2409:1 2552:1 3020:1 3123:1 3152:1 3362:1 3575:1 
-318.5439826569617 -161.0032641515323 356:1 397:1 818:1 881:1 890:1 1257:1 2695:1 3237:1 3289:1 3371:1 3575:1 
-318.5439826569617 -186.1461315903964 111:1 205:1 681:1 881:1 943:1 1525:1 1596:1 1869:1 2548:1 3059:1 3371:1 
-280.9784245878192 -188.6912700880155 164:1 300:1 561:1 639:1 692:1 859:1 1163:1 1244:1 1307:1 1480:1 1862:1 2081:1 2116:1 2188:1 2214:1 2705:1 2711:1 2722:1 2807:1 3077:1 3094:1 3158:1 3242:1 3302:1 3371:1 
-318.5439826569617 -196.2615341525556 226:1 1475:1 2167:1 2831:1 2977:1 3230:1 3433:1 3455:1 
-0 -9.409146042522437 12:1 140:1 164:1 312:1 339:1 407:1 424:1 472:1 494:1 514:1 599:1 639:1 786:1 834:1 1040:1 1084:1 1163:1 1291:1 1307:1 1390:1 1522:1 1614:1 1715:1 1796:1 1895:1 1917:1 1954:1 2066:1 2082:1 2152:1 2286:1 2409:1 2595:1 2625:1 2685:1 2758:1 2858:1 2877:1 2982:1 2986:1 3007:1 3013:1 3020:1 3094:1 3147:1 3158:1 3325:1 3366:1 3371:1 3428:1 3504:1 3556:1 3575:1 3635:1 
-318.5439826569617 -634.1152015007369 875:1 885:1 3305:1 
-318.5439826569617 -207.8886424519937 1174:1 1698:1 1701:1 2139:1 2704:1 3305:1 3445:1 
-318.5439826569617 -156.2686692883069 153:1 1136:1 1396:1 1423:1 1895:1 2735:1 3094:1 3305:1 3445:1 
-264.1353446952101 -0 219:1 356:1 434:1 885:1 890:1 1163:1 1256:1 1685:1 1933:1 2409:1 2531:1 2625:1 3020:1 3031:1 3320:1 3362:1 3433:1 3605:1 
-223.3937640991117 -77.9333424012233 84:1 194:1 226:1 416:1 498:1 571:1 589:1 712:1 785:1 855:1 1162:1 1199:1 1328:1 1335:1 1636:1 1838:1 1846:1 2203:1 2730:1 2762:1 2911:1 3253:1 3424:1 
-264.4667999435026 -258.1630520902781 65:1 504:1 878:1 1072:1 1077:1 1162:1 1701:1 1865:1 2240:1 2388:1 2669:1 2831:1 2875:1 3293:1 3353:1 
-318.5439826569617 -0 374:1 463:1 732:1 980:1 1715:1 1929:1 2665:1 3635:1 
-85.29989977113441 -0 192:1 504:1 510:1 885:1 1078:1 1740:1 1928:1 2139:1 2204:1 2341:1 2665:1 2669:1 2698:1 2776:1 2783:1 2977:1 3230:1 3293:1 3350:1 3541:1 
-120.0806740200196 -123.4910999383747 730:1 944:1 1452:1 1533:1 1715:1 2265:1 2530:1 2903:1 3020:1 3083:1 
-148.4938680925229 -78.41770180335132 2:1 37:1 164:1 205:1 392:1 732:1 870:1 890:1 931:1 960:1 986:1 1135:1 1175:1 1340:1 1676:1 2289:1 2561:1 2799:1 3051:1 3059:1 3371:1 3635:1 3640:1 
-83.60572552568942 -102.9817475625927 156:1 231:1 306:1 459:1 587:1 989:1 1013:1 1023:1 1088:1 1266:1 1269:1 1327:1 1858:1 1949:1 1971:1 1999:1 2105:1 2656:1 2947:1 2949:1 3154:1 3285:1 3355:1 
-185.2025957139003 -102.333525171399 1929:1 1971:1 2123:1 2180:1 2181:1 2182:1 2678:1 2782:1 3204:1 3626:1 
-318.5439826569617 -310.7627376219623 416:1 1174:1 1319:1 1844:1 1879:1 2204:1 2415:1 3362:1 
-318.5439826569617 -89.38079651091137 122:1 463:1 1084:1 1256:1 1549:1 1607:1 2186:1 2665:1 3033:1 3120:1 
-50.28289447203522 -0 94:1 126:1 142:1 347:1 507:1 517:1 714:1 726:1 878:1 952:1 1059:1 1067:1 1174:1 1399:1 1443:1 1462:1 1698:1 1722:1 1770:1 1779:1 1861:1 2126:1 2195:1 2320:1 2362:1 2779:1 2954:1 3038:1 3411:1 3461:1 
-318.5439826569617 -268.0560842562891 66:1 153:1 167:1 330:1 1621:1 2328:1 2507:1 2594:1 2651:1 2767:1 3122:1 
-32.18065669856375 -0 192:1 504:1 510:1 885:1 1078:1 1740:1 1928:1 2139:1 2204:1 2341:1 2665:1 2669:1 2698:1 2776:1 2783:1 2977:1 3230:1 3293:1 3350:1 3541:1 
-318.5439826569617 -566.632434110495 593:1 638:1 859:1 1668:1 2986:1 3020:1 3076:1 3558:1 
-129.3588522345235 -0 6:1 18:1 300:1 859:1 1175:1 1216:1 1335:1 1336:1 1405:1 1522:1 1929:1 2456:1 2652:1 3020:1 3094:1 3188:1 3289:1 3320:1 3599:1 
-318.5439826569617 -389.6139569352802 161:1 703:1 918:1 1809:1 2065:1 2906:1 3280:1 
-318.5439826569617 -338.1881771043389 23:1 41:1 173:1 885:1 1428:1 1776:1 2831:1 3619:1 
-318.5439826569617 -182.7436128026089 510:1 530:1 559:1 661:1 708:1 833:1 2245:1 2254:1 2442:1 2450:1 2474:1 2549:1 2964:1 3253:1 3293:1 
-103.5215011217044 -40.67436030980174 2:1 72:1 250:1 312:1 357:1 358:1 361:1 589:1 834:1 859:1 998:1 1025:1 1199:1 1244:1 1307:1 1332:1 1338:1 1573:1 1962:1 2208:1 2265:1 2324:1 2515:1 2986:1 3018:1 3051:1 3083:1 3159:1 3355:1 3362:1 3371:1 3512:1 3593:1 
-63.74234073910328 -31.18449232667123 84:1 94:1 530:1 593:1 619:1 896:1 1476:1 1631:1 1701:1 2167:1 2177:1 2665:1 2835:1 3230:1 3411:1 3424:1 3461:1 3580:1 
-318.5439826569617 -96.18230513899495 236:1 268:1 378:1 890:1 1442:1 2089:1 2735:1 2896:1 3031:1 3289:1 3302:1 3616:1 
-318.5439826569617 -319.2901471318066 285:1 312:1 378:1 380:1 1163:1 1336:1 1929:1 2007:1 2208:1 2674:1 2879:1 3077:1 3605:1 3616:1 
-182.6413989908508 -189.8199991561645 23:1 499:1 554:1 830:1 1336:1 1442:1 1546:1 1929:1 2016:1 2417:1 2831:1 2903:1 3007:1 3367:1 3627:1 
-35.65455998632881 -0 250:1 639:1 859:1 1175:1 1306:1 1327:1 1787:1 2986:1 3201:1 3287:1 3355:1 3362:1 
-213.7093733623666 -120.367485228672 142:1 145:1 191:1 341:1 347:1 504:1 509:1 510:1 535:1 616:1 708:1 1027:1 1040:1 1074:1 1092:1 1111:1 1119:1 1174:1 1556:1 1641:1 1741:1 1850:1 1966:1 2245:1 2499:1 2828:1 2831:1 3006:1 3122:1 3186:1 3308:1 3374:1 3540:1 3570:1 3618:1 
-295.4266726626277 -111.5507134021642 65:1 111:1 134:1 623:1 1458:1 1740:1 1966:1 2415:1 2499:1 2664:1 2869:1 2968:1 3258:1 
-25.92054384658635 -109.4249498501243 194:1 200:1 333:1 504:1 536:1 553:1 565:1 571:1 593:1 810:1 901:1 1138:1 1263:1 1455:1 1630:1 1706:1 1782:1 1846:1 2167:1 2240:1 2346:1 2729:1 2762:1 2831:1 2889:1 2911:1 3122:1 3336:1 3455:1 
-103.4358307142174 -0 142:1 553:1 678:1 708:1 712:1 1138:1 1202:1 1226:1 1492:1 1630:1 1653:1 1929:1 2167:1 2216:1 2725:1 2763:1 2802:1 2911:1 2991:1 3181:1 3253:1 3293:1 3350:1 3580:1 
-177.980082093793 -88.12759134855051 180:1 194:1 726:1 1138:1 1929:1 2551:1 2887:1 3363:1 3443:1 
-256.6145137748766 -48.81877389732541 286:1 380:1 730:1 864:1 1572:1 1599:1 1876:1 2015:1 2324:1 2328:1 3020:1 3077:1 3423:1 
-177.9448166966187 -57.81932323458032 57:1 253:1 444:1 1076:1 1943:1 1948:1 1999:1 2168:1 2242:1 2284:1 2717:1 2773:1 3355:1 3423:1 3639:1 
-7.173112229973761 -0 42:1 308:1 312:1 378:1 381:1 402:1 412:1 464:1 472:1 504:1 744:1 745:1 829:1 830:1 866:1 931:1 998:1 1084:1 1250:1 1304:1 1350:1 1599:1 1720:1 1861:1 1867:1 2020:1 2068:1 2200:1 2201:1 2407:1 2417:1 2521:1 2602:1 2605:1 2610:1 2842:1 2844:1 2956:1 3020:1 3056:1 3077:1 3095:1 3226:1 3278:1 3338:1 3355:1 3362:1 3400:1 3430:1 3467:1 3535:1 3589:1 3616:1 
-74.52519570969238 -0 250:1 300:1 429:1 512:1 867:1 1163:1 1336:1 1423:1 1508:1 1655:1 1929:1 1980:1 2078:1 2082:1 2205:1 2265:1 3051:1 3297:1 3383:1 3447:1 3519:1 
-0 -45.09994498728441 37:1 419:1 593:1 697:1 726:1 830:1 1000:1 1057:1 1175:1 1307:1 1336:1 1450:1 1649:1 1755:1 1929:1 2182:1 2191:1 2224:1 2285:1 2335:1 2418:1 2557:1 2605:1 2669:1 2831:1 2839:1 2878:1 3355:1 3362:1 3371:1 3467:1 3555:1 3638:1 
-55.68240534412151 -144.171291578307 37:1 175:1 268:1 319:1 593:1 834:1 1336:1 1442:1 1508:1 1624:1 1655:1 1929:1 1961:1 1987:1 2047:1 2293:1 2321:1 2385:1 2557:1 2839:1 2903:1 2942:1 3020:1 3176:1 3302:1 3362:1 3481:1 3578:1 3614:1 
-318.5439826569617 -248.9630439566985 286:1 1167:1 1336:1 1929:1 2015:1 3554:1 
-300.7235277713835 -176.9542449570369 219:1 695:1 951:1 972:1 1244:1 1505:1 1890:1 2877:1 2969:1 3070:1 3134:1 3147:1 3371:1 3575:1 
-318.5439826569617 -60.67603799147969 21:1 230:1 332:1 407:1 1163:1 1242:1 1408:1 1424:1 1738:1 2038:1 2297:1 2447:1 2660:1 2683:1 3007:1 3094:1 3172:1 3289:1 3481:1 
-318.5439826569617 -50.15660098251956 420:1 536:1 2242:1 2478:1 2877:1 3355:1 3481:1 
-233.9179269263077 -218.7711834353817 2:1 250:1 593:1 706:1 775:1 1163:1 1244:1 1275:1 1327:1 1847:1 2208:1 2265:1 2297:1 2324:1 2356:1 2758:1 3020:1 3355:1 3362:1 3509:1 
-318.5439826569617 -385.1521575440385 286:1 712:1 1327:1 2048:1 2245:1 2447:1 2859:1 3086:1 3371:1 
-50.09501293535666 -77.65913035980076 20:1 245:1 593:1 749:1 1191:1 1275:1 1438:1 1470:1 1624:1 1757:1 2288:1 2594:1 2614:1 2726:1 2954:1 3202:1 3619:1 
-60.48667731891918 -0 442:1 463:1 944:1 1715:1 2456:1 2665:1 2786:1 2969:1 3009:1 3374:1 
-184.8045494921559 -132.986733739937 15:1 139:1 245:1 295:1 863:1 974:1 1030:1 1245:1 1374:1 1419:1 1816:1 2220:1 2395:1 2464:1 3206:1 
-63.11009637251178 -89.34306302266798 20:1 164:1 236:1 245:1 300:1 442:1 639:1 706:1 726:1 885:1 910:1 1014:1 1017:1 1191:1 1307:1 1382:1 2049:1 2060:1 2152:1 2208:1 2279:1 2402:1 2409:1 2456:1 2595:1 2722:1 2723:1 2741:1 2877:1 2934:1 2936:1 2986:1 3166:1 3289:1 3329:1 3351:1 3433:1 3481:1 3560:1 
-276.430441580059 -220.2670693911623 114:1 296:1 480:1 735:1 765:1 863:1 1595:1 1814:1 2199:1 2514:1 2563:1 3273:1 
-296.7823836192815 -0 245:1 442:1 944:1 960:1 1163:1 1244:1 1307:1 1617:1 1669:1 1676:1 1715:1 1890:1 3020:1 3168:1 3371:1 
-44.85242620056012 -0 297:1 300:1 522:1 726:1 891:1 944:1 961:1 1035:1 1040:1 1169:1 1175:1 1256:1 1574:1 1655:1 1676:1 1715:1 1751:1 1788:1 1880:1 1984:1 2242:1 2248:1 2511:1 2529:1 2625:1 2683:1 2786:1 2792:1 3104:1 3241:1 3289:1 3448:1 
-11.65391568800407 -36.95446940857989 228:1 308:1 426:1 630:1 677:1 866:1 944:1 1064:1 1126:1 1175:1 1436:1 1561:1 1715:1 2079:1 2124:1 2227:1 2435:1 2522:1 2527:1 2596:1 2700:1 2786:1 2846:1 3020:1 3108:1 3241:1 3582:1 
-140.913958789352 -32.06222179970521 2:1 786:1 944:1 1044:1 1411:1 1455:1 1561:1 1715:1 1726:1 1796:1 2831:1 3094:1 3121:1 3229:1 3355:1 3448:1 
-140.0423744248061 -39.73918199824693 164:1 274:1 834:1 944:1 1163:1 1285:1 1307:1 1496:1 1715:1 1974:1 2214:1 2444:1 2484:1 3007:1 3104:1 3188:1 3200:1 3527:1 
-100.4233919167546 -0 2:1 526:1 593:1 681:1 944:1 1336:1 1585:1 1715:1 2007:1 2200:1 2528:1 2720:1 3320:1 3371:1 3560:1 3593:1 3616:1 
-59.89640352539412 -0 153:1 164:1 250:1 263:1 268:1 308:1 312:1 400:1 434:1 463:1 536:1 593:1 623:1 637:1 639:1 726:1 830:1 851:1 859:1 870:1 960:1 986:1 1084:1 1092:1 1175:1 1217:1 1251:1 1307:1 1316:1 1344:1 1423:1 1552:1 1562:1 1583:1 1739:1 1785:1 1890:1 1953:1 2007:1 2078:1 2080:1 2208:1 2245:1 2248:1 2324:1 2456:1 2510:1 2665:1 2742:1 2758:1 2788:1 2817:1 2839:1 2877:1 2982:1 3020:1 3023:1 3031:1 3051:1 3094:1 3104:1 3108:1 3152:1 3188:1 3223:1 3238:1 3302:1 3371:1 3393:1 3481:1 3509:1 3585:1 
-5.961545409664165 -0 879:1 1135:1 1175:1 2033:1 2091:1 2561:1 2758:1 2877:1 2954:1 2986:1 3020:1 3094:1 3362:1 
-171.506172282253 -0 463:1 639:1 1135:1 1175:1 1336:1 1929:1 2091:1 2243:1 2561:1 2665:1 3020:1 3616:1 
-152.2676740538369 -108.2631505539947 17:1 535:1 630:1 810:1 921:1 1135:1 1929:1 2820:1 2831:1 3350:1 
-203.1550878335987 -30.87337860584416 94:1 510:1 535:1 921:1 1475:1 2549:1 3167:1 3350:1 3362:1 3541:1 
-10.56262284226076 -0 7:1 34:1 80:1 122:1 137:1 172:1 204:1 268:1 286:1 403:1 463:1 517:1 575:1 582:1 669:1 671:1 676:1 726:1 732:1 733:1 761:1 826:1 829:1 830:1 870:1 906:1 908:1 962:1 1038:1 1080:1 1121:1 1250:1 1336:1 1480:1 1494:1 1499:1 1715:1 1726:1 1780:1 1876:1 1934:1 1973:1 1992:1 2009:1 2015:1 2037:1 2089:1 2116:1 2119:1 2248:1 2300:1 2350:1 2407:1 2417:1 2456:1 2484:1 2665:1 2762:1 2799:1 2842:1 2879:1 2889:1 2942:1 3020:1 3109:1 3166:1 3177:1 3221:1 3267:1 3289:1 3320:1 3330:1 3409:1 3595:1 
-216.9257319610437 -0 90:1 111:1 328:1 463:1 676:1 879:1 1676:1 1715:1 1934:1 2665:1 2799:1 2831:1 3051:1 
-318.5439826569617 -233.2923443716669 488:1 526:1 1275:1 1307:1 1489:1 1715:1 2497:1 2831:1 3123:1 3306:1 
-318.5439826569617 -634.1152015007369 514:1 639:1 1018:1 2138:1 2820:1 
-318.5439826569617 -211.6161757434266 295:1 1135:1 1971:1 2147:1 2665:1 3307:1 3550:1 
-35.92409641841444 -0 111:1 268:1 300:1 328:1 639:1 732:1 834:1 864:1 959:1 962:1 1009:1 1135:1 1714:1 1739:1 1785:1 1867:1 2007:1 2048:1 2091:1 2245:1 2561:1 2831:1 2879:1 3051:1 3148:1 3362:1 3481:1 
-255.2987337682693 -0 67:1 463:1 986:1 1336:1 1480:1 1788:1 1796:1 1929:1 2007:1 2562:1 2665:1 3120:1 3239:1 3564:1 
-318.5439826569617 -429.408740026358 834:1 1095:1 1485:1 2820:1 3342:1 
-318.5439826569617 -634.1152015007369 142:1 517:1 693:1 2875:1 
-0 -71.14825957775113 164:1 255:1 338:1 494:1 674:1 830:1 1135:1 1163:1 1175:1 1344:1 1371:1 1390:1 1739:1 2007:1 2091:1 2456:1 2561:1 2594:1 2669:1 2758:1 3014:1 3020:1 3077:1 3225:1 3397:1 
-37.69227643569528 -0 163:1 859:1 1018:1 1040:1 1163:1 1726:1 1751:1 1788:1 2007:1 2251:1 2456:1 2594:1 2785:1 3094:1 
-318.5439826569617 -326.7628358507195 312:1 432:1 834:1 998:1 1144:1 1175:1 1191:1 1217:1 1480:1 1572:1 1707:1 1714:1 2525:1 2669:1 3319:1 3409:1 3635:1 3638:1 
-318.5439826569617 -573.5463645022244 163:1 639:1 1000:1 1329:1 
-0 -28.24180805785196 37:1 163:1 551:1 639:1 749:1 960:1 1009:1 1244:1 1312:1 1397:1 1673:1 1788:1 1895:1 1907:1 1911:1 2102:1 2214:1 2531:1 2560:1 2692:1 2758:1 2785:1 2831:1 2999:1 3325:1 
-175.3387276557758 -0 29:1 673:1 908:1 1336:1 1858:1 1929:1 2239:1 2831:1 3020:1 3024:1 3303:1 3490:1 3640:1 
-318.5439826569617 -634.1152015007369 1122:1 1262:1 1869:1 2159:1 2903:1 3371:1 
-147.0378103747087 -10.76120397839671 209:1 834:1 1046:1 1122:1 1661:1 2903:1 2942:1 3020:1 3616:1 
-318.5439826569617 -246.4776322641346 22:1 251:1 946:1 1175:1 1672:1 1881:1 1909:1 2161:1 2458:1 2580:1 2818:1 2903:1 2906:1 3009:1 3020:1 3158:1 3640:1 
-0 -69.87107592343457 99:1 167:1 209:1 402:1 444:1 639:1 790:1 1276:1 1895:1 2182:1 2456:1 2903:1 3289:1 
-15.48061168247133 -41.37439963602047 37:1 218:1 328:1 498:1 530:1 599:1 697:1 881:1 887:1 906:1 962:1 1191:1 1377:1 1460:1 1508:1 1522:1 1533:1 1551:1 1597:1 1673:1 1699:1 1714:1 1851:1 2055:1 2056:1 2067:1 2081:1 2082:1 2328:1 2407:1 2409:1 2613:1 2683:1 2767:1 2842:1 2881:1 2888:1 2903:1 2986:1 3020:1 3021:1 3202:1 3289:1 3313:1 3320:1 3435:1 
-71.82951832518249 -59.81436212421043 172:1 268:1 337:1 356:1 366:1 407:1 442:1 463:1 593:1 639:1 870:1 881:1 900:1 998:1 1250:1 1377:1 1396:1 1499:1 1508:1 1525:1 1597:1 1726:1 1785:1 1788:1 1811:1 1842:1 1874:1 1890:1 2007:1 2055:1 2078:1 2117:1 2200:1 2214:1 2245:1 2250:1 2385:1 2409:1 2454:1 2456:1 2665:1 2768:1 2888:1 2942:1 2969:1 2990:1 3020:1 3362:1 3371:1 3433:1 3459:1 3535:1 3619:1 3640:1 
-140.4136650222805 -0 209:1 402:1 463:1 593:1 630:1 790:1 1175:1 1247:1 1276:1 1340:1 1455:1 1508:1 1882:1 2182:1 2839:1 2903:1 3020:1 3031:1 3289:1 
-318.5439826569617 -634.1152015007369 163:1 
-318.5439826569617 -485.6065863432603 163:1 2785:1 
-318.5439826569617 -194.4238552848556 163:1 1191:1 2785:1 
-244.6433920971755 -0 163:1 172:1 726:1 998:1 2785:1 3289:1 
-318.5439826569617 -528.6291247545174 944:1 1715:1 2969:1 
-318.5439826569617 -0 209:1 402:1 2899:1 
-318.5439826569617 -0 209:1 402:1 2899:1 
-318.5439826569617 -0 209:1 402:1 2899:1 
-318.5439826569617 -257.0115875277243 209:1 402:1 2899:1 
-318.5439826569617 -634.1152015007369 209:1 402:1 2899:1 
-318.5439826569617 -203.5112569123695 51:1 109:1 2630:1 3020:1 3519:1 
-318.5439826569617 -634.1152015007369 51:1 3519:1 
-318.5439826569617 -634.1152015007369 2571:1 
-318.5439826569617 -634.1152015007369 2571:1 
-318.5439826569617 -634.1152015007369 2571:1 
-318.5439826569617 -634.1152015007369 2571:1 
-318.5439826569617 -634.1152015007369 2571:1 
-318.5439826569617 -634.1152015007369 2571:1 
-318.5439826569617 -634.1152015007369 2202:1 2665:1 
-318.5439826569617 -634.1152015007369 1405:1 2202:1 
-318.5439826569617 -0 2085:1 2417:1 2531:1 3627:1 
-318.5439826569617 -0 2085:1 2417:1 2531:1 3627:1 
-318.5439826569617 -0 2085:1 2417:1 2531:1 3627:1 
-318.5439826569617 -634.1152015007369 2085:1 2531:1 
-318.5439826569617 -604.9133886820381 998:1 1163:1 2815:1 3020:1 3545:1 3559:1 3605:1 
-178.2081290448271 -0 174:1 226:1 573:1 646:1 732:1 1050:1 1306:1 1440:1 2190:1 2564:1 2665:1 2977:1 3230:1 
-318.5439826569617 -634.1152015007369 2085:1 2531:1 
-318.5439826569617 -634.1152015007369 463:1 3406:1 
-125.1868826895997 -0 407:1 938:1 998:1 1175:1 1256:1 1336:1 1390:1 2319:1 2872:1 2877:1 2986:1 3020:1 3147:1 
-116.8369807347637 -0 65:1 94:1 174:1 226:1 510:1 533:1 729:1 921:1 1160:1 1289:1 1404:1 1624:1 2182:1 2185:1 2346:1 2551:1 2729:1 2828:1 2954:1 2978:1 3293:1 3350:1 3416:1 
-190.3126328869454 -0 2:1 142:1 300:1 536:1 697:1 1035:1 1184:1 1319:1 1327:1 1390:1 1507:1 2017:1 2245:1 2402:1 2450:1 2758:1 2831:1 2872:1 2877:1 3350:1 
-318.5439826569617 -370.5276217774598 962:1 1334:1 1390:1 1676:1 2669:1 2799:1 2872:1 3051:1 3139:1 
-318.5439826569617 -258.8884453242836 1390:1 1507:1 2265:1 2680:1 2877:1 3051:1 3479:1 
-81.2226723161681 -0 38:1 72:1 434:1 1396:1 2242:1 2263:1 3355:1 3362:1 
-48.15100739879556 -0 164:1 891:1 920:1 923:1 936:1 944:1 1024:1 1157:1 1175:1 1344:1 1601:1 1650:1 1715:1 1915:1 2143:1 2227:1 2324:1 2700:1 2748:1 2758:1 2799:1 2887:1 3289:1 3297:1 3355:1 3362:1 
-105.6220721459448 -147.2618087512656 145:1 191:1 300:1 331:1 347:1 504:1 559:1 560:1 593:1 616:1 623:1 708:1 878:1 896:1 1040:1 1109:1 1111:1 1162:1 1475:1 1838:1 1958:1 2012:1 2371:1 2476:1 2704:1 2825:1 2978:1 3543:1 
-318.5439826569617 -634.1152015007369 25:1 478:1 1307:1 1788:1 1923:1 2033:1 
-98.44425423846278 -82.56576545065501 114:1 205:1 293:1 593:1 616:1 998:1 1175:1 1247:1 2117:1 2472:1 2489:1 3059:1 3497:1 3499:1 3506:1 3603:1 3627:1 
-247.2426098143341 -149.5344279184938 770:1 861:1 930:1 998:1 1256:1 2208:1 2619:1 2785:1 3297:1 3355:1 
-318.5439826569617 -172.4446672950191 194:1 199:1 510:1 593:1 988:1 1109:1 1701:1 2254:1 2665:1 2859:1 
-15.63657908797572 -0 37:1 234:1 375:1 481:1 639:1 742:1 750:1 859:1 879:1 885:1 962:1 1040:1 1089:1 1178:1 1307:1 1614:1 1621:1 1851:1 2043:1 2056:1 2456:1 2613:1 2620:1 2792:1 2826:1 2877:1 2905:1 2986:1 3147:1 3320:1 3355:1 3371:1 3504:1 
-25.57868093527133 -0 66:1 205:1 211:1 226:1 283:1 300:1 472:1 726:1 864:1 1095:1 1250:1 1336:1 1392:1 2085:1 2182:1 2208:1 2324:1 2842:1 3059:1 3083:1 3593:1 
-51.86720699929511 -0 251:1 308:1 357:1 420:1 463:1 494:1 498:1 536:1 579:1 625:1 674:1 706:1 745:1 830:1 866:1 869:1 906:1 1163:1 1327:1 1585:1 1658:1 1668:1 1726:1 1813:1 1858:1 1894:1 1962:1 2081:1 2082:1 2200:1 2337:1 2387:1 2411:1 2522:1 2609:1 2665:1 2669:1 2825:1 2904:1 3020:1 3030:1 3095:1 3108:1 3152:1 3221:1 3324:1 
-295.4589532855814 -202.1968207336735 515:1 612:1 824:1 863:1 1320:1 1744:1 2022:1 2220:1 2266:1 3113:1 3547:1 
-153.7060769636197 -0 2:1 83:1 99:1 772:1 830:1 962:1 1136:1 1788:1 2085:1 2140:1 2201:1 2245:1 2288:1 2531:1 2831:1 2842:1 3094:1 3382:1 3619:1 
-20.77737932669982 -0 476:1 576:1 773:1 865:1 1024:1 1868:1 1971:1 2105:1 2266:1 2274:1 2501:1 2665:1 3169:1 3204:1 3302:1 3307:1 3326:1 3355:1 3463:1 3511:1 3547:1 3550:1 3570:1 
-85.05074314191748 -0 2:1 25:1 114:1 597:1 687:1 998:1 1247:1 1296:1 1923:1 2085:1 2531:1 3320:1 3355:1 3506:1 
-318.5439826569617 -0 328:1 870:1 944:1 998:1 1715:1 1728:1 
-34.16045734171153 -0 2:1 772:1 870:1 944:1 1194:1 1397:1 1655:1 1715:1 1738:1 1983:1 2534:1 3051:1 3168:1 3302:1 3481:1 
-318.5439826569617 -175.0812039929184 80:1 132:1 529:1 1163:1 1800:1 2020:1 2758:1 2969:1 3371:1 
-147.6228123160872 -39.5843128072289 312:1 1186:1 1551:1 1575:1 1655:1 1813:1 2007:1 2219:1 2242:1 2436:1 2456:1 2610:1 3452:1 3549:1 3562:1 3640:1 
-41.57719622698069 -0 132:1 357:1 498:1 832:1 930:1 1244:1 1298:1 1308:1 1310:1 1336:1 1382:1 1460:1 1480:1 1585:1 1895:1 2170:1 2298:1 2720:1 2817:1 2942:1 3120:1 3166:1 3194:1 3289:1 3355:1 3362:1 3371:1 3640:1 
-27.73194780432832 -0 533:1 1163:1 1178:1 1414:1 1813:1 2242:1 2581:1 2892:1 2905:1 3020:1 3371:1 
-120.909895272109 -156.9160307222419 69:1 111:1 356:1 513:1 726:1 866:1 1084:1 1423:1 1494:1 1674:1 2463:1 2522:1 2786:1 3228:1 3362:1 3509:1 3640:1 
-167.6057802133299 -0 191:1 656:1 721:1 759:1 878:1 2665:1 2681:1 2704:1 2776:1 3036:1 3099:1 3230:1 3293:1 
-41.13157337699887 -0 250:1 280:1 463:1 859:1 944:1 1307:1 1715:1 1990:1 2665:1 2969:1 2986:1 3621:1 
-154.9951273216856 -86.9167884493644 157:1 654:1 1156:1 1417:1 1596:1 1714:1 1813:1 1885:1 1890:1 1934:1 1953:1 2159:1 2333:1 2683:1 2784:1 3077:1 3158:1 3355:1 3362:1 3393:1 3445:1 3481:1 3504:1 3512:1 
-133.3413869430614 -0 1117:1 1244:1 1307:1 1460:1 1739:1 1813:1 2203:1 2242:1 2298:1 2758:1 3020:1 
-318.5439826569617 -414.6571512468046 138:1 517:1 1074:1 1111:1 2776:1 2954:1 3167:1 
-318.5439826569617 -504.6454777864245 1074:1 2704:1 2776:1 2954:1 3167:1 
-318.5439826569617 -634.1152015007369 1244:1 1813:1 2242:1 2758:1 3020:1 
-231.9085086047415 -0 164:1 280:1 308:1 463:1 526:1 609:1 1000:1 1522:1 1990:1 2665:1 2831:1 3221:1 3320:1 3325:1 3621:1 
-34.16622250719489 -0 26:1 1813:1 1895:1 2242:1 3362:1 
-318.5439826569617 -0 163:1 366:1 1000:1 1676:1 2785:1 2912:1 
-206.7481533143013 -50.04818936702317 164:1 395:1 533:1 639:1 730:1 742:1 1342:1 1390:1 1452:1 1480:1 1624:1 1908:1 2100:1 2404:1 2456:1 
-318.5439826569617 -354.0812866768218 37:1 889:1 1275:1 1813:1 2242:1 3329:1 3608:1 
-154.1272148971196 -0 280:1 308:1 356:1 732:1 931:1 1063:1 1163:1 1175:1 1599:1 1658:1 1800:1 1813:1 2208:1 2242:1 2365:1 2393:1 3020:1 3077:1 3104:1 3146:1 3315:1 3358:1 3509:1 
-290.4569431602964 -0 2:1 357:1 446:1 593:1 639:1 1163:1 1327:1 1480:1 1813:1 1919:1 2456:1 2846:1 3094:1 3358:1 3371:1 
-318.5439826569617 -433.2858052400161 43:1 1306:1 2100:1 3287:1 
-318.5439826569617 -462.3705302683339 1306:1 1633:1 1840:1 3287:1 
-318.5439826569617 -487.5605052777871 328:1 998:1 1467:1 2909:1 3256:1 
-318.5439826569617 -0 180:1 1059:1 1776:1 
-318.5439826569617 -0 180:1 1059:1 1776:1 
-318.5439826569617 -0 180:1 1059:1 1776:1 
-318.5439826569617 -0 180:1 1059:1 1776:1 
-318.5439826569617 -245.7105349392967 180:1 1059:1 1776:1 
-318.5439826569617 -634.1152015007369 180:1 1059:1 1776:1 
-318.5439826569617 -634.1152015007369 776:1 1438:1 2454:1 
-318.5439826569617 -397.1909796067429 463:1 1502:1 1665:1 2665:1 
-318.5439826569617 -0 1438:1 1923:1 2454:1 3368:1 3404:1 
-318.5439826569617 -312.8078011939897 1438:1 1923:1 2454:1 3404:1 
